svm_type epsilon_svr
kernel_type rbf
gamma 100
nr_class 2
total_sv 6012
rho -9.3466104362412903
SV
-0.10000000000000001 1:3 2:45 3:1 4:0.857375 5:0.729 6:0.614125 7:0.512 8:0.421875 9:0.343 10:0.274625 11:0.216 12:0.166375 13:0.125 14:0.091125 15:0.064 16:0.042875 17:0.027 18:0.015625 19:0.008 20:0.003375 21:0.001 22:0.000125 
-0.10000000000000001 1:3 2:45 3:0.97931101 4:0.87631486 5:0.74600554 6:0.62930039 7:0.52544941 8:0.43370259 9:0.35330994 10:0.28352146 11:0.22358714 12:0.17275699 13:0.13028101 14:0.095409189 15:0.067391539 16:0.045478055 17:0.028918738 18:0.016963587 19:0.0088626034 20:0.0038657863 21:0.0012231358 22:0.00018465203 
-0.10000000000000001 1:3 2:45 3:0.95688492 4:0.8974686 5:0.76501482 6:0.64627979 7:0.54051352 8:0.44696599 9:0.36488722 10:0.29352719 11:0.23213591 12:0.17996339 13:0.13625961 14:0.10027459 15:0.07125831 16:0.048460784 17:0.031132008 18:0.018521982 19:0.0098807057 20:0.0044581796 21:0.0015044036 22:0.00026937753 
-0.10000000000000001 1:3 2:45 3:0.93879304 4:0.91502727 5:0.78080592 6:0.66039706 7:0.55305071 8:0.45801685 9:0.3745455 10:0.30188665 11:0.23929029 12:0.18600644 13:0.14128508 14:0.10437623 15:0.074529876 16:0.050996021 17:0.033024667 18:0.019865813 19:0.010769459 20:0.0049856047 21:0.0017642506 22:0.00035539641 
-0.10000000000000001 1:3 2:45 3:0.91896005 4:0.93480384 5:0.79860477 6:0.67632236 7:0.56720662 8:0.47050754 9:0.38547514 10:0.3113594 11:0.24741032 12:0.19287791 13:0.14701217 14:0.1090631 15:0.078280693 16:0.053914952 17:0.035215878 18:0.021433471 19:0.01181773 20:0.0056186557 21:0.0020862483 22:0.00047050754 
-0.10000000000000001 1:3 2:45 3:0.89940837 4:0.95486333 5:0.81667207 6:0.69250164 7:0.58160205 8:0.48322329 9:0.39661536 10:0.32102826 11:0.255712 12:0.19991657 13:0.15289198 14:0.11388822 15:0.082155288 16:0.056943193 17:0.037501932 18:0.023081503 19:0.012931909 20:0.006303147 21:0.0024452187 22:0.00060812382 
-0.10000000000000001 1:3 2:45 3:0.880136 4:0.97520775 5:0.83500984 6:0.70893692 7:0.596239 8:0.49616609 9:0.40796817 10:0.33089525 11:0.26419734 12:0.20712442 13:0.1589265 14:0.11885359 15:0.086155671 16:0.060082755 17:0.039884838 18:0.024811921 19:0.014114005 20:0.007041088 21:0.0028431713 22:0.00077025463 
-0.10000000000000001 1:3 2:45 3:0.85925658 4:0.99791811 5:0.85549617 6:0.7273138 7:0.61262102 8:0.51066782 9:0.42070421 10:0.34198018 11:0.27374573 12:0.21525087 13:0.16574559 14:0.12447989 15:0.090703776 16:0.063667245 17:0.042620298 18:0.026812934 19:0.015495153 20:0.0079169557 21:0.0033283417 22:0.00097931101 
-0.10000000000000001 1:3 2:45 3:0.84056421 4:0.98136694 5:0.87440845 6:0.74429321 7:0.62777173 8:0.52409399 9:0.43251001 10:0.35226978 11:0.28262329 12:0.22282056 13:0.17211157 14:0.12974634 15:0.094974854 16:0.067047119 17:0.045213135 18:0.0287229 19:0.016826416 20:0.0087736816 21:0.0038146973 22:0.0011994629 
-0.10000000000000001 1:3 2:45 3:0.82214491 4:0.96093665 5:0.89359742 6:0.76153485 7:0.64317019 8:0.53775345 9:0.44453463 10:0.36276373 11:0.29169074 12:0.23056567 13:0.17863851 14:0.13515927 15:0.099377948 16:0.070544542 17:0.047909053 18:0.030721481 19:0.018231825 20:0.0096900864 21:0.0043462641 22:0.0014503584 
-0.10000000000000001 1:3 2:45 3:0.80399668 4:0.94079189 5:0.9130651 6:0.77904072 7:0.65881843 8:0.55164821 9:0.45678009 10:0.37346404 11:0.30095008 12:0.2384882 13:0.18532841 14:0.1407207 15:0.10391507 16:0.074161524 17:0.050710063 18:0.032810685 19:0.019713391 20:0.010668179 21:0.0049250515 22:0.0017340069 
-0.10000000000000001 1:3 2:45 3:0.7861175 4:0.92093066 5:0.93281349 6:0.79681283 7:0.67471843 8:0.56578028 9:0.46924838 10:0.38437273 11:0.31040333 12:0.24659018 13:0.19218328 14:0.14643263 15:0.10858823 16:0.077900074 17:0.053618173 18:0.034992522 19:0.021273121 20:0.01170997 21:0.0055530689 22:0.0020524179 
-0.10000000000000001 1:3 2:45 3:0.76850538 4:0.90135094 5:0.95284459 6:0.8148532 7:0.69087223 8:0.58015167 9:0.48194153 10:0.3954918 11:0.32005249 12:0.2548736 13:0.19920513 14:0.15229707 15:0.11339943 16:0.081762201 17:0.056635393 18:0.037269001 19:0.022913026 20:0.012817468 21:0.0062323258 22:0.0024076006 
-0.10000000000000001 1:3 2:45 3:0.75115829 4:0.88205072 5:0.97316043 6:0.83316383 7:0.70728182 8:0.59476438 9:0.49486153 10:0.40682327 11:0.32989958 12:0.26334048 13:0.20639597 14:0.15831603 15:0.11835068 16:0.085749915 17:0.059763732 18:0.039642132 19:0.024635115 20:0.013992681 21:0.0069648314 22:0.0028015646 
-0.10000000000000001 1:3 2:45 3:0.73407423 4:0.863028 5:0.99376301 6:0.85174674 7:0.72394921 8:0.60962043 9:0.50801041 10:0.41836913 11:0.33994661 12:0.27199283 13:0.2137578 14:0.16449153 15:0.123444 16:0.089865225 17:0.063005199 18:0.042113923 19:0.026441397 20:0.015237621 21:0.0077525951 22:0.0032363191 
-0.10000000000000001 1:3 2:45 3:0.7189218 4:0.84614316 5:0.98755201 6:0.8687058 7:0.73917195 8:0.62320059 9:0.52004174 10:0.42894538 11:0.34916153 12:0.27994018 13:0.22053132 14:0.17018497 15:0.12815111 16:0.09367976 17:0.066020906 18:0.044424552 19:0.028140697 20:0.016419343 21:0.008510489 22:0.0036641348 
-0.10000000000000001 1:3 2:45 3:0.70068716 4:0.82580702 5:0.9649998 6:0.88973739 7:0.75806545 8:0.64007058 9:0.5350028 10:0.44211211 11:0.36064849 12:0.28986196 13:0.22900251 14:0.17732015 15:0.13406487 16:0.098486671 17:0.069835557 18:0.047361527 19:0.030314579 20:0.017944715 21:0.0095019347 22:0.0042362374 
-0.10000000000000001 1:3 2:45 3:0.68438013 4:0.80760474 5:0.9447981 6:0.90914917 7:0.77551831 8:0.6556687 9:0.54885034 10:0.45431323 11:0.37130737 12:0.29908276 13:0.2368894 14:0.18397729 15:0.13959644 16:0.10299683 17:0.073428467 18:0.050141357 19:0.032385498 20:0.019410889 21:0.010467529 22:0.0048054199 
-0.10000000000000001 1:3 2:45 3:0.66832809 4:0.78967191 5:0.92488032 6:0.92884125 7:0.79323702 8:0.67151819 9:0.56293479 10:0.4667368 11:0.38217423 12:0.30849707 13:0.24495533 14:0.19079901 15:0.1452781 16:0.10764261 17:0.077142542 18:0.053027887 19:0.034548648 20:0.020954825 21:0.01149642 22:0.0054234306 
-0.10000000000000001 1:3 2:45 3:0.65252903 4:0.77200653 5:0.90524445 6:0.94881566 7:0.81122357 8:0.68762107 9:0.57725815 10:0.47938481 11:0.39325106 12:0.31810689 13:0.2532023 14:0.1977873 15:0.15111188 16:0.11242605 17:0.080979793 18:0.056023124 19:0.036806037 20:0.022578535 21:0.012590615 22:0.0060922788 
-0.10000000000000001 1:3 2:45 3:0.63698095 4:0.7546066 5:0.8858885 6:0.96907439 7:0.82947999 8:0.70397934 9:0.59182244 10:0.49225929 11:0.40453989 12:0.32791423 13:0.26163233 14:0.20494418 15:0.15709978 16:0.11734913 17:0.084942229 18:0.059129078 19:0.039159677 20:0.024284026 21:0.013752125 22:0.0068139739 
-0.10000000000000001 1:3 2:45 3:0.62320059 4:0.73917195 5:0.8687058 6:0.98755201 7:0.84614316 8:0.7189218 9:0.60513795 10:0.50404159 11:0.41488274 12:0.33691139 13:0.26937753 14:0.21153118 15:0.16262232 16:0.12190097 17:0.088617115 18:0.062020761 19:0.041361907 20:0.025890553 21:0.014856698 22:0.0075103443 
-0.10000000000000001 1:3 2:45 3:0.60812382 4:0.72227081 5:0.84987614 6:0.99168979 7:0.86491785 8:0.73577085 9:0.62016553 10:0.51735187 11:0.42657988 12:0.34709956 13:0.2781609 14:0.21901391 15:0.16890859 16:0.12709493 17:0.092822938 18:0.065342614 19:0.043903957 20:0.027756966 21:0.016151642 22:0.0083379844 
-0.10000000000000001 1:3 2:45 3:0.59329219 4:0.70562929 5:0.83132055 6:0.97111598 7:0.88396822 8:0.75288113 9:0.63543987 10:0.53089444 11:0.43849484 12:0.35749108 13:0.28713315 14:0.22667106 15:0.1753548 16:0.13243437 17:0.097159773 18:0.068781012 19:0.046548083 20:0.029710988 21:0.017519727 22:0.0092242986 
-0.10000000000000001 1:3 2:45 3:0.57725815 4:0.68762107 5:0.81122357 6:0.94881566 7:0.90524445 8:0.77200653 9:0.65252903 10:0.54606195 11:0.45185528 12:0.36915902 13:0.29722319 14:0.23529777 15:0.18263276 16:0.13847818 17:0.10208401 18:0.072700256 19:0.04957692 20:0.031964 21:0.019111497 22:0.010269411 
-0.10000000000000001 1:3 2:45 3:0.56435634 4:0.67311705 5:0.79502358 6:0.93082596 7:0.92290408 8:0.78789337 9:0.66673683 10:0.55868446 11:0.46298625 12:0.37889221 13:0.30565234 14:0.24251664 15:0.1887351 16:0.14355772 17:0.10623452 18:0.076015478 19:0.052150605 20:0.033889899 21:0.02048336 22:0.011180987 
-0.10000000000000001 1:3 2:45 3:0.54885034 4:0.6556687 5:0.77551831 6:0.90914917 7:0.9447981 8:0.80760474 9:0.68438013 10:0.57437427 11:0.47683716 12:0.3910188 13:0.31616919 14:0.25153833 15:0.19637622 16:0.14993286 17:0.11145825 18:0.080202393 19:0.055415283 20:0.036346924 21:0.022247314 22:0.012366455 
-0.10000000000000001 1:3 2:45 3:0.53637695 4:0.64161914 5:0.75979883 6:0.89166602 7:0.9629668 8:0.82397461 9:0.69904492 10:0.58742773 11:0.48837305 12:0.40113086 13:0.32495117 14:0.25908398 15:0.2027793 16:0.15528711 17:0.11585742 18:0.083740234 19:0.058185547 20:0.038443359 21:0.023763672 22:0.013396484 
-0.10000000000000001 1:3 2:45 3:0.52274091 4:0.62624554 5:0.7425835 6:0.8725048 7:0.98342575 8:0.84242112 9:0.71558316 10:0.60216187 11:0.50140724 12:0.41256927 13:0.33489798 14:0.26764335 15:0.21005538 16:0.16138409 17:0.12087946 18:0.087791495 19:0.061370199 20:0.040865569 21:0.025527606 22:0.01460631 
-0.10000000000000001 1:3 2:45 3:0.50801041 4:0.60962043 5:0.72394921 6:0.85174674 7:0.99376301 8:0.863028 9:0.73407423 10:0.6186517 11:0.51601043 12:0.4254004 13:0.34607162 14:0.2772741 15:0.21825782 16:0.1682728 17:0.12656902 18:0.092396493 19:0.065005217 20:0.043645191 21:0.027566415 22:0.016018889 
-0.10000000000000001 1:3 2:45 3:0.49486153 4:0.59476438 5:0.70728182 6:0.83316383 7:0.97316043 8:0.88205072 9:0.75115829 10:0.63390127 11:0.52952967 12:0.43729349 13:0.35644272 14:0.28622737 15:0.22589744 16:0.17470292 17:0.13189382 18:0.096720137 19:0.06843187 20:0.04627902 21:0.029511586 22:0.01737957 
-0.10000000000000001 1:3 2:45 3:0.48322329 4:0.58160205 5:0.69250164 6:0.81667207 7:0.95486333 8:0.89940837 9:0.76675877 10:0.64783835 11:0.54189708 12:0.44818499 13:0.36595206 14:0.2944483 15:0.2329237 16:0.18062828 17:0.13681202 18:0.10072492 19:0.071616992 20:0.04873823 21:0.031338635 22:0.018668207 
-0.10000000000000001 1:3 2:45 3:0.46924838 4:0.56578028 5:0.67471843 6:0.79681283 7:0.93281349 8:0.92093066 9:0.7861175 10:0.6651481 11:0.55727245 12:0.46174055 13:0.3778024 14:0.304708 15:0.24170735 16:0.18805045 17:0.1429873 18:0.10576789 19:0.075642244 20:0.051860343 21:0.033672191 22:0.02032779 
-0.10000000000000001 1:3 2:45 3:0.45801685 4:0.55305071 5:0.66039706 6:0.78080592 7:0.91502727 8:0.93879304 9:0.80219669 10:0.67953783 11:0.57006648 12:0.47303262 13:0.38768627 14:0.31327742 15:0.24905606 16:0.19427221 17:0.14817585 18:0.110017 19:0.079045645 20:0.054511791 21:0.035665437 22:0.021756583 
-0.10000000000000001 1:3 2:45 3:0.44574921 4:0.53913231 5:0.64472374 6:0.76327351 7:0.89553161 8:0.95890936 9:0.82031792 10:0.69576815 11:0.58451005 12:0.48579362 13:0.39886885 14:0.32298575 15:0.25739431 16:0.20134454 17:0.15408644 18:0.11487001 19:0.082945237 20:0.057562136 21:0.0379707 22:0.023420932 
-0.10000000000000001 1:3 2:45 3:0.43370259 4:0.52544941 5:0.62930039 6:0.74600554 7:0.87631486 8:0.97931101 9:0.83871002 10:0.71225487 11:0.59919556 12:0.49878207 13:0.41026442 14:0.3328926 15:0.26591662 16:0.20858647 17:0.16015215 18:0.11986367 19:0.086971019 20:0.060724202 21:0.040373218 22:0.025168068 
-0.10000000000000001 1:3 2:45 3:0.421875 4:0.512 5:0.614125 6:0.729 7:0.857375 8:1 9:0.857375 10:0.729 11:0.614125 12:0.512 13:0.421875 14:0.343 15:0.274625 16:0.216 17:0.166375 18:0.125 19:0.091125 20:0.064 21:0.042875 22:0.027 
-0.10000000000000001 1:3 2:45 3:0.41026442 4:0.49878207 5:0.59919556 6:0.71225487 7:0.83871002 8:0.97931101 9:0.87631486 10:0.74600554 11:0.62930039 12:0.52544941 13:0.43370259 14:0.35330994 15:0.28352146 16:0.22358714 17:0.17275699 18:0.13028101 19:0.095409189 20:0.067391539 21:0.045478055 22:0.028918738 
-0.10000000000000001 1:3 2:45 3:0.39774104 4:0.48450732 5:0.58305484 6:0.69413362 7:0.81849364 8:0.95688492 9:0.8974686 10:0.76501482 11:0.64627979 12:0.54051352 13:0.44696599 14:0.36488722 15:0.29352719 16:0.23213591 17:0.17996339 18:0.13625961 19:0.10027459 20:0.07125831 21:0.048460784 22:0.031132008 
-0.10000000000000001 1:3 2:45 3:0.38768627 4:0.47303262 5:0.57006648 6:0.67953783 7:0.80219669 8:0.93879304 9:0.91502727 10:0.78080592 11:0.66039706 12:0.55305071 13:0.45801685 14:0.3745455 15:0.30188665 16:0.23929029 17:0.18600644 18:0.14128508 19:0.10437623 20:0.074529876 21:0.050996021 22:0.033024667 
-0.10000000000000001 1:3 2:45 3:0.37671468 4:0.46049709 5:0.55586283 6:0.6635619 7:0.78434431 8:0.91896005 9:0.93480384 10:0.79860477 11:0.67632236 12:0.56720662 13:0.47050754 14:0.38547514 15:0.3113594 16:0.24741032 17:0.19287791 18:0.14701217 19:0.1090631 20:0.078280693 21:0.053914952 22:0.035215878 
-0.10000000000000001 1:3 2:45 3:0.36595206 4:0.44818499 5:0.54189708 6:0.64783835 7:0.76675877 8:0.89940837 9:0.95486333 10:0.81667207 11:0.69250164 12:0.58160205 13:0.48322329 14:0.39661536 15:0.32102826 16:0.255712 17:0.19991657 18:0.15289198 19:0.11388822 20:0.082155288 21:0.056943193 22:0.037501932 
-0.10000000000000001 1:3 2:45 3:0.35435215 4:0.43489736 5:0.52680716 6:0.63083154 7:0.7477205 8:0.87822404 9:0.97725795 10:0.83685857 11:0.71059461 12:0.59771606 13:0.49747293 14:0.40911522 15:0.33189293 16:0.26505605 17:0.20785459 18:0.15953854 19:0.11935792 20:0.086562705 21:0.060402911 22:0.040128533 
-0.10000000000000001 1:3 2:45 3:0.34504572 4:0.42422309 5:0.5146713 6:0.61714034 7:0.73238021 8:0.86114092 9:0.99583912 10:0.85362008 11:0.72563021 12:0.6111195 13:0.50933796 14:0.41953559 15:0.34096238 16:0.27286834 17:0.21450347 18:0.16511776 19:0.12396122 20:0.090283851 21:0.063335645 22:0.042366606 
-0.10000000000000001 1:3 2:45 3:0.33389429 4:0.41141577 5:0.50009351 6:0.60067749 7:0.71391772 8:0.84056421 9:0.98136694 10:0.87440845 11:0.74429321 12:0.62777173 13:0.52409399 14:0.43251001 15:0.35226978 16:0.28262329 17:0.22282056 18:0.17211157 19:0.12974634 20:0.094974854 21:0.067047119 22:0.045213135 
0.10000000000000001 1:3 2:45 3:0.32396747 4:0.39999879 5:0.48708219 6:0.58596768 7:0.69740526 8:0.82214491 9:0.96093665 10:0.89359742 11:0.76153485 12:0.64317019 13:0.53775345 14:0.44453463 15:0.36276373 16:0.29169074 17:0.23056567 18:0.17863851 19:0.13515927 20:0.099377948 21:0.070544542 22:0.047909053 
0.10000000000000001 1:3 2:45 3:0.3152033 4:0.38990584 5:0.47556672 6:0.57293594 7:0.68276348 8:0.80579936 9:0.94279357 10:0.91110573 11:0.77727819 12:0.65724231 13:0.55024809 14:0.45554555 15:0.37238467 16:0.30001545 17:0.23768791 18:0.18465203 19:0.14015781 20:0.10345527 21:0.073794389 22:0.050425176 
0.10000000000000001 1:3 2:45 3:0.30565234 4:0.37889221 5:0.46298625 6:0.55868446 7:0.66673683 8:0.78789337 9:0.92290408 10:0.93082596 11:0.79502358 12:0.67311705 13:0.56435634 14:0.46799147 15:0.38327243 16:0.30944922 17:0.24577185 18:0.19149031 19:0.1458546 20:0.10811473 21:0.077520691 22:0.053322485 
0.10000000000000001 1:3 2:45 3:0.29537133 4:0.36701898 5:0.4494062 6:0.54328301 7:0.6493994 8:0.76850538 9:0.90135094 10:0.95284459 11:0.8148532 12:0.69087223 13:0.58015167 14:0.48194153 15:0.3954918 16:0.32005249 17:0.2548736 18:0.19920513 19:0.15229707 20:0.11339943 21:0.081762201 22:0.056635393 
0.10000000000000001 1:3 2:45 3:0.28713315 4:0.35749108 5:0.43849484 6:0.53089444 7:0.63543987 8:0.75288113 9:0.88396822 10:0.97111598 11:0.83132055 12:0.70562929 13:0.59329219 14:0.49355927 15:0.4056805 16:0.32890591 17:0.26248548 18:0.20566922 19:0.15770713 20:0.1178492 21:0.085345435 22:0.05944584 
0.10000000000000001 1:3 2:45 3:0.2772741 4:0.34607162 5:0.4254004 6:0.51601043 7:0.6186517 8:0.73407423 9:0.863028 10:0.99376301 11:0.85174674 12:0.72394921 13:0.60962043 14:0.50801041 15:0.41836913 16:0.33994661 17:0.27199283 18:0.2137578 19:0.16449153 20:0.123444 21:0.089865225 22:0.063005199 
0.10000000000000001 1:3 2:45 3:0.26850951 4:0.33590368 5:0.41372493 6:0.50272326 7:0.60364868 8:0.71725119 9:0.84428077 10:0.98548744 11:0.87060392 12:0.74087642 13:0.62472183 14:0.52139016 15:0.43013141 16:0.35019557 17:0.28083265 18:0.22129265 19:0.17082556 20:0.12868139 21:0.094110141 22:0.066361805 
-0.10000000000000001 1:3 2:45 3:0.26078104 4:0.32692455 5:0.40340141 6:0.49096159 7:0.59035511 8:0.70233196 9:0.82764215 10:0.96703567 11:0.88781156 12:0.75633471 13:0.63852452 14:0.533631 15:0.44090415 16:0.35959396 17:0.28895045 18:0.22822359 19:0.17666341 20:0.13351989 21:0.098043038 22:0.069482853 
-0.10000000000000001 1:3 2:45 3:0.2523694 4:0.31713705 5:0.39213387 6:0.47810985 7:0.57581501 8:0.68599932 9:0.80941281 10:0.94680546 11:0.90719541 12:0.77376109 13:0.65409761 14:0.54745496 15:0.45308314 16:0.37023216 17:0.29815201 18:0.23609269 19:0.18330421 20:0.13903656 21:0.10253974 22:0.073063757 
-0.10000000000000001 1:3 2:45 3:0.24332773 4:0.30659863 5:0.37998412 6:0.46423419 7:0.56009885 8:0.66832809 9:0.78967191 10:0.92488032 11:0.92884125 12:0.79323702 13:0.67151819 14:0.56293479 15:0.4667368 16:0.38217423 17:0.30849707 18:0.24495533 19:0.19079901 20:0.1452781 21:0.10764261 22:0.077142542 
-0.10000000000000001 1:3 2:45 3:0.23609269 4:0.29815201 5:0.37023216 6:0.45308314 7:0.54745496 8:0.65409761 9:0.77376109 10:0.90719541 11:0.94680546 12:0.80941281 13:0.68599932 14:0.57581501 15:0.47810985 16:0.39213387 17:0.31713705 18:0.2523694 19:0.19708092 20:0.1505216 21:0.11194145 22:0.080590468 
-0.10000000000000001 1:3 2:45 3:0.22744644 4:0.28804084 5:0.35854149 6:0.4396984 7:0.53226155 8:0.63698095 9:0.7546066 10:0.8858885 11:0.96907439 12:0.82947999 13:0.70397934 14:0.59182244 15:0.49225929 16:0.40453989 17:0.32791423 18:0.26163233 19:0.20494418 20:0.15709978 21:0.11734913 22:0.084942229 
-0.10000000000000001 1:3 2:45 3:0.21977174 4:0.27904959 5:0.34812953 6:0.42776154 7:0.51869564 8:0.62168183 9:0.73747009 10:0.86681044 11:0.98961946 12:0.84800828 13:0.72059501 14:0.60662966 15:0.50536223 16:0.41604271 17:0.33792111 18:0.27024743 19:0.21227166 20:0.16324381 21:0.12241388 22:0.089031859 
-0.10000000000000001 1:3 2:45 3:0.21301387 4:0.27111919 5:0.33893285 6:0.41720484 7:0.50668516 8:0.60812382 9:0.72227081 10:0.84987614 11:0.99168979 12:0.86491785 13:0.73577085 14:0.62016553 15:0.51735187 16:0.42657988 17:0.34709956 18:0.2781609 19:0.21901391 20:0.16890859 21:0.12709493 22:0.092822938 
-0.10000000000000001 1:3 2:45 3:0.20566922 4:0.26248548 5:0.32890591 6:0.4056805 7:0.49355927 8:0.59329219 9:0.70562929 10:0.83132055 11:0.97111598 12:0.88396822 13:0.75288113 14:0.63543987 15:0.53089444 16:0.43849484 17:0.35749108 18:0.28713315 19:0.22667106 20:0.1753548 21:0.13243437 22:0.097159773 
-0.10000000000000001 1:3 2:45 3:0.1977873 4:0.2532023 5:0.31810689 6:0.39325106 7:0.47938481 8:0.57725815 9:0.68762107 10:0.81122357 11:0.94881566 12:0.90524445 13:0.77200653 14:0.65252903 15:0.54606195 16:0.45185528 17:0.36915902 18:0.29722319 19:0.23529777 20:0.18263276 21:0.13847818 22:0.10208401 
-0.10000000000000001 1:3 2:45 3:0.19149031 4:0.24577185 5:0.30944922 6:0.38327243 7:0.46799147 8:0.56435634 9:0.67311705 10:0.79502358 11:0.93082596 12:0.92290408 13:0.78789337 14:0.66673683 15:0.55868446 16:0.46298625 17:0.37889221 18:0.30565234 19:0.24251664 20:0.1887351 21:0.14355772 22:0.10623452 
-0.10000000000000001 1:3 2:45 3:0.18397729 4:0.2368894 5:0.29908276 6:0.37130737 7:0.45431323 8:0.54885034 9:0.6556687 10:0.77551831 11:0.90914917 12:0.9447981 13:0.80760474 14:0.68438013 15:0.57437427 16:0.47683716 17:0.3910188 18:0.31616919 19:0.25153833 20:0.19637622 21:0.14993286 22:0.11145825 
-0.10000000000000001 1:3 2:45 3:0.17732015 4:0.22900251 5:0.28986196 6:0.36064849 7:0.44211211 8:0.5350028 9:0.64007058 10:0.75806545 11:0.88973739 12:0.9649998 13:0.82580702 14:0.70068716 15:0.58889021 16:0.48966618 17:0.40226506 18:0.32593687 19:0.25993159 20:0.20349922 21:0.15588978 22:0.11635324 
-0.10000000000000001 1:3 2:45 3:0.17146776 4:0.22205573 5:0.28172702 6:0.35123165 7:0.43131962 8:0.52274091 9:0.62624554 10:0.7425835 11:0.8725048 12:0.98342575 13:0.84242112 14:0.71558316 15:0.60216187 16:0.50140724 17:0.41256927 18:0.33489798 19:0.26764335 20:0.21005538 21:0.16138409 22:0.12087946 
-0.10000000000000001 1:3 2:45 3:0.16511776 4:0.21450347 5:0.27286834 6:0.34096238 7:0.41953559 8:0.50933796 9:0.6111195 10:0.72563021 11:0.85362008 12:0.99583912 13:0.86114092 14:0.73238021 15:0.61714034 16:0.5146713 17:0.42422309 18:0.34504572 19:0.27638918 20:0.21750347 21:0.1676386 22:0.12604456 
-0.10000000000000001 1:3 2:45 3:0.15831603 4:0.20639597 5:0.26334048 6:0.32989958 7:0.40682327 8:0.49486153 9:0.59476438 10:0.70728182 11:0.83316383 12:0.97316043 13:0.88205072 14:0.75115829 15:0.63390127 16:0.52952967 17:0.43729349 18:0.35644272 19:0.28622737 20:0.22589744 21:0.17470292 22:0.13189382 
-0.10000000000000001 1:3 2:45 3:0.15289198 4:0.19991657 5:0.255712 6:0.32102826 7:0.39661536 8:0.48322329 9:0.58160205 10:0.69250164 11:0.81667207 12:0.95486333 13:0.89940837 14:0.76675877 15:0.64783835 16:0.54189708 17:0.44818499 18:0.36595206 19:0.2944483 20:0.2329237 21:0.18062828 22:0.13681202 
-0.10000000000000001 1:3 2:45 3:0.14643263 4:0.19218328 5:0.24659018 6:0.31040333 7:0.38437273 8:0.46924838 9:0.56578028 10:0.67471843 11:0.79681283 12:0.93281349 13:0.92093066 14:0.7861175 15:0.6651481 16:0.55727245 17:0.46174055 18:0.3778024 19:0.304708 20:0.24170735 21:0.18805045 22:0.1429873 
-0.10000000000000001 1:3 2:45 3:0.14128508 4:0.18600644 5:0.23929029 6:0.30188665 7:0.3745455 8:0.45801685 9:0.55305071 10:0.66039706 11:0.78080592 12:0.91502727 13:0.93879304 14:0.80219669 15:0.67953783 16:0.57006648 17:0.47303262 18:0.38768627 19:0.31327742 20:0.24905606 21:0.19427221 22:0.14817585 
-0.10000000000000001 1:3 2:45 3:0.1357087 4:0.17930013 5:0.2313499 6:0.292608 7:0.36382444 8:0.44574921 9:0.53913231 10:0.64472374 11:0.76327351 12:0.89553161 13:0.95890936 14:0.82031792 15:0.69576815 16:0.58451005 17:0.48579362 18:0.39886885 19:0.32298575 20:0.25739431 21:0.20134454 22:0.15408644 
-0.10000000000000001 1:3 2:45 3:0.13028101 4:0.17275699 5:0.22358714 6:0.28352146 7:0.35330994 8:0.43370259 9:0.52544941 10:0.62930039 11:0.74600554 12:0.87631486 13:0.97931101 14:0.83871002 15:0.71225487 16:0.59919556 17:0.49878207 18:0.41026442 19:0.3328926 20:0.26591662 21:0.20858647 22:0.16015215 
-0.10000000000000001 1:3 2:45 3:0.11986367 4:0.16015215 5:0.20858647 6:0.26591662 7:0.3328926 8:0.41026442 9:0.49878207 10:0.59919556 11:0.71225487 12:0.83871002 13:0.97931101 14:0.87631486 15:0.74600554 16:0.62930039 17:0.52544941 18:0.43370259 19:0.35330994 20:0.28352146 21:0.22358714 22:0.17275699 
-0.10000000000000001 1:3 2:45 3:0.11437841 4:0.15348843 5:0.20062971 6:0.25655224 7:0.32200601 8:0.39774104 9:0.48450732 10:0.58305484 11:0.69413362 12:0.81849364 13:0.95688492 14:0.8974686 15:0.76501482 16:0.64627979 17:0.54051352 18:0.44696599 19:0.36488722 20:0.29352719 21:0.23213591 22:0.17996339 
0.10000000000000001 1:3 2:45 3:0.10953936 4:0.14759325 5:0.19357422 6:0.24823228 7:0.31231742 8:0.38657965 9:0.47176896 10:0.56863535 11:0.67792883 12:0.80039938 13:0.93679703 14:0.91699225 15:0.78257378 16:0.66197822 17:0.55445558 18:0.45925585 19:0.37562905 20:0.30282515 21:0.24009418 22:0.18668612 
0.10000000000000001 1:3 2:45 3:0.10530264 4:0.14241838 5:0.18736746 6:0.24089986 7:0.3037656 8:0.37671468 9:0.46049709 10:0.55586283 11:0.6635619 12:0.78434431 13:0.91896005 14:0.93480384 15:0.79860477 16:0.67632236 17:0.56720662 18:0.47050754 19:0.38547514 20:0.3113594 21:0.24741032 22:0.19287791 
0.10000000000000001 1:3 2:45 3:0.10072492 4:0.13681202 5:0.18062828 6:0.2329237 7:0.2944483 8:0.36595206 9:0.44818499 10:0.54189708 11:0.64783835 12:0.76675877 13:0.89940837 14:0.95486333 15:0.81667207 16:0.69250164 17:0.58160205 18:0.48322329 19:0.39661536 20:0.32102826 21:0.255712 22:0.19991657 
0.10000000000000001 1:3 2:45 3:0.095844847 4:0.13081714 5:0.17340402 6:0.22435548 7:0.28442153 8:0.35435215 9:0.43489736 10:0.52680716 11:0.63083154 12:0.7477205 13:0.87822404 14:0.97725795 15:0.83685857 16:0.71059461 17:0.59771606 18:0.49747293 19:0.40911522 20:0.33189293 21:0.26505605 22:0.20785459 
0.10000000000000001 1:3 2:45 3:0.091971357 4:0.12604456 5:0.1676386 6:0.21750347 7:0.27638918 8:0.34504572 9:0.42422309 10:0.5146713 11:0.61714034 12:0.73238021 13:0.86114092 14:0.99583912 15:0.85362008 16:0.72563021 17:0.6111195 18:0.50933796 19:0.41953559 20:0.34096238 21:0.27286834 22:0.21450347 
0.10000000000000001 1:3 2:45 3:0.087380615 4:0.12037085 5:0.16076733 6:0.20932007 7:0.26677905 8:0.33389429 9:0.41141577 10:0.50009351 11:0.60067749 12:0.71391772 13:0.84056421 14:0.98136694 15:0.87440845 16:0.74429321 17:0.62777173 18:0.52409399 19:0.43251001 20:0.35226978 21:0.28262329 22:0.22282056 
-0.10000000000000001 1:3 2:45 3:0.083342104 4:0.11536301 5:0.154686 6:0.20206107 7:0.25823823 8:0.32396747 9:0.39999879 10:0.48708219 11:0.58596768 12:0.69740526 13:0.82214491 14:0.96093665 15:0.89359742 16:0.76153485 17:0.64317019 18:0.53775345 19:0.44453463 20:0.36276373 21:0.29169074 22:0.23056567 
-0.10000000000000001 1:3 2:45 3:0.079815565 4:0.11097644 5:0.14934566 6:0.1956732 7:0.25070908 8:0.3152033 9:0.38990584 10:0.47556672 11:0.57293594 12:0.68276348 13:0.80579936 14:0.94279357 15:0.91110573 16:0.77727819 17:0.65724231 18:0.55024809 19:0.45554555 20:0.37238467 21:0.30001545 22:0.23768791 
-0.10000000000000001 1:3 2:45 3:0.076015478 4:0.10623452 5:0.14355772 6:0.1887351 7:0.24251664 8:0.30565234 9:0.37889221 10:0.46298625 11:0.55868446 12:0.66673683 13:0.78789337 14:0.92290408 15:0.93082596 16:0.79502358 17:0.67311705 18:0.56435634 19:0.46799147 20:0.38327243 21:0.30944922 22:0.24577185 
-0.10000000000000001 1:3 2:45 3:0.071976876 4:0.1011766 5:0.13736591 6:0.1812948 7:0.23371328 8:0.29537133 9:0.36701898 10:0.4494062 11:0.54328301 12:0.6493994 13:0.76850538 14:0.90135094 15:0.95284459 16:0.8148532 17:0.69087223 18:0.58015167 19:0.48194153 20:0.3954918 21:0.32005249 22:0.2548736 
-0.10000000000000001 1:3 2:45 3:0.068781012 4:0.097159773 5:0.13243437 6:0.1753548 7:0.22667106 8:0.28713315 9:0.35749108 10:0.43849484 11:0.53089444 12:0.63543987 13:0.75288113 14:0.88396822 15:0.97111598 16:0.83132055 17:0.70562929 18:0.59329219 19:0.49355927 20:0.4056805 21:0.32890591 22:0.26248548 
-0.10000000000000001 1:3 2:45 3:0.065005217 4:0.092396493 5:0.12656902 6:0.1682728 7:0.21825782 8:0.2772741 9:0.34607162 10:0.4254004 11:0.51601043 12:0.6186517 13:0.73407423 14:0.863028 15:0.99376301 16:0.85174674 17:0.72394921 18:0.60962043 19:0.50801041 20:0.41836913 21:0.33994661 22:0.27199283 
-0.10000000000000001 1:3 2:45 3:0.061694908 4:0.088203661 5:0.1213895 6:0.16200242 7:0.21079242 8:0.26850951 9:0.33590368 10:0.41372493 11:0.50272326 12:0.60364868 13:0.71725119 14:0.84428077 15:0.98548744 16:0.87060392 17:0.74087642 18:0.62472183 19:0.52139016 20:0.43013141 21:0.35019557 22:0.28083265 
-0.10000000000000001 1:3 2:45 3:0.058813443 4:0.084540295 5:0.11685048 6:0.156494 7:0.20422085 8:0.26078104 9:0.32692455 10:0.40340141 11:0.49096159 12:0.59035511 13:0.70233196 14:0.82764215 15:0.96703567 16:0.88781156 17:0.75633471 18:0.63852452 19:0.533631 20:0.44090415 21:0.35959396 22:0.28895045 
-0.10000000000000001 1:3 2:45 3:0.055718651 4:0.080590468 5:0.11194145 6:0.1505216 7:0.19708092 8:0.2523694 9:0.31713705 10:0.39213387 11:0.47810985 12:0.57581501 13:0.68599932 14:0.80941281 15:0.94680546 16:0.90719541 17:0.77376109 18:0.65409761 19:0.54745496 20:0.45308314 21:0.37023216 22:0.29815201 
-0.10000000000000001 1:3 2:45 3:0.052441948 4:0.076389937 5:0.10670251 6:0.14412967 7:0.1894214 8:0.24332773 9:0.30659863 10:0.37998412 11:0.46423419 12:0.56009885 13:0.66832809 14:0.78967191 15:0.92488032 16:0.92884125 17:0.79323702 18:0.67151819 19:0.56293479 20:0.4667368 21:0.38217423 22:0.30849707 
-0.10000000000000001 1:3 2:45 3:0.049858606 4:0.073063757 5:0.10253974 6:0.13903656 7:0.18330421 8:0.23609269 9:0.29815201 10:0.37023216 11:0.45308314 12:0.54745496 13:0.65409761 14:0.77376109 15:0.90719541 16:0.94680546 17:0.80941281 18:0.68599932 19:0.57581501 20:0.47810985 21:0.39213387 22:0.31713705 
-0.10000000000000001 1:3 2:45 3:0.046818188 4:0.069131339 5:0.09760074 6:0.13297639 7:0.17600829 8:0.22744644 9:0.28804084 10:0.35854149 11:0.4396984 12:0.53226155 13:0.63698095 14:0.7546066 15:0.8858885 16:0.96907439 17:0.82947999 18:0.70397934 19:0.59182244 20:0.49225929 21:0.40453989 22:0.32791423 
-0.10000000000000001 1:3 2:45 3:0.044163743 4:0.065681176 5:0.093250693 6:0.12762229 7:0.16954598 8:0.21977174 9:0.27904959 10:0.34812953 11:0.42776154 12:0.51869564 13:0.62168183 14:0.73747009 15:0.86681044 16:0.98961946 17:0.84800828 18:0.72059501 19:0.60662966 20:0.50536223 21:0.41604271 22:0.33792111 
-0.10000000000000001 1:3 2:45 3:0.041862247 4:0.062675904 5:0.089447895 6:0.12292822 7:0.16386688 8:0.21301387 9:0.27111919 10:0.33893285 11:0.41720484 12:0.50668516 13:0.60812382 14:0.72227081 15:0.84987614 16:0.99168979 17:0.86491785 18:0.73577085 19:0.62016553 20:0.51735187 21:0.42657988 22:0.34709956 
-0.10000000000000001 1:3 2:45 3:0.039400412 4:0.05944584 5:0.085345435 6:0.1178492 7:0.15770713 8:0.20566922 9:0.26248548 10:0.32890591 11:0.4056805 12:0.49355927 13:0.59329219 14:0.70562929 15:0.83132055 16:0.97111598 17:0.88396822 18:0.75288113 19:0.63543987 20:0.53089444 21:0.43849484 22:0.35749108 
-0.10000000000000001 1:3 2:45 3:0.036806037 4:0.056023124 5:0.080979793 6:0.11242605 7:0.15111188 8:0.1977873 9:0.2532023 10:0.31810689 11:0.39325106 12:0.47938481 13:0.57725815 14:0.68762107 15:0.81122357 16:0.94881566 17:0.90524445 18:0.77200653 19:0.65252903 20:0.54606195 21:0.45185528 22:0.36915902 
-0.10000000000000001 1:3 2:45 3:0.034770113 4:0.053322485 5:0.077520691 6:0.10811473 7:0.1458546 8:0.19149031 9:0.24577185 10:0.30944922 11:0.38327243 12:0.46799147 13:0.56435634 14:0.67311705 15:0.79502358 16:0.93082596 17:0.92290408 18:0.78789337 19:0.66673683 20:0.55868446 21:0.46298625 22:0.37889221 
0.10000000000000001 1:3 2:45 3:0.032385498 4:0.050141357 5:0.073428467 6:0.10299683 7:0.13959644 8:0.18397729 9:0.2368894 10:0.29908276 11:0.37130737 12:0.45431323 13:0.54885034 14:0.6556687 15:0.77551831 16:0.90914917 17:0.9447981 18:0.80760474 19:0.68438013 20:0.57437427 21:0.47683716 22:0.3910188 
0.10000000000000001 1:3 2:45 3:0.030314579 4:0.047361527 5:0.069835557 6:0.098486671 7:0.13406487 8:0.17732015 9:0.22900251 10:0.28986196 11:0.36064849 12:0.44211211 13:0.5350028 14:0.64007058 15:0.75806545 16:0.88973739 17:0.9649998 18:0.82580702 19:0.70068716 20:0.58889021 21:0.48966618 22:0.40226506 
0.10000000000000001 1:3 2:45 3:0.028527949 4:0.044949246 5:0.066703875 6:0.094541838 7:0.12921313 8:0.17146776 9:0.22205573 10:0.28172702 11:0.35123165 12:0.43131962 13:0.52274091 14:0.62624554 15:0.7425835 16:0.8725048 17:0.98342575 18:0.84242112 19:0.71558316 20:0.60216187 21:0.50140724 22:0.41256927 
0.10000000000000001 1:3 2:45 3:0.026626733 4:0.042366606 5:0.063335645 6:0.090283851 7:0.12396122 8:0.16511776 9:0.21450347 10:0.27286834 11:0.34096238 12:0.41953559 13:0.50933796 14:0.6111195 15:0.72563021 16:0.85362008 17:0.99583912 18:0.86114092 19:0.73238021 20:0.61714034 21:0.5146713 22:0.42422309 
0.10000000000000001 1:3 2:45 3:0.024635115 4:0.039642132 5:0.059763732 6:0.085749915 7:0.11835068 8:0.15831603 9:0.20639597 10:0.26334048 11:0.32989958 12:0.40682327 13:0.49486153 14:0.59476438 15:0.70728182 16:0.83316383 17:0.97316043 18:0.88205072 19:0.75115829 20:0.63390127 21:0.52952967 22:0.43729349 
0.10000000000000001 1:3 2:45 3:0.023081503 4:0.037501932 5:0.056943193 6:0.082155288 7:0.11388822 8:0.15289198 9:0.19991657 10:0.255712 11:0.32102826 12:0.39661536 13:0.48322329 14:0.58160205 15:0.69250164 16:0.81667207 17:0.95486333 18:0.89940837 19:0.76675877 20:0.64783835 21:0.54189708 22:0.44818499 
0.10000000000000001 1:3 2:45 3:0.021273121 4:0.034992522 5:0.053618173 6:0.077900074 7:0.10858823 8:0.14643263 9:0.19218328 10:0.24659018 11:0.31040333 12:0.38437273 13:0.46924838 14:0.56578028 15:0.67471843 16:0.79681283 17:0.93281349 18:0.92093066 19:0.7861175 20:0.6651481 21:0.55727245 22:0.46174055 
0.10000000000000001 1:3 2:45 3:0.019713391 4:0.032810685 5:0.050710063 6:0.074161524 7:0.10391507 8:0.1407207 9:0.18532841 10:0.2384882 11:0.30095008 12:0.37346404 13:0.45678009 14:0.55164821 15:0.65881843 16:0.77904072 17:0.9130651 18:0.94079189 19:0.80399668 20:0.68114938 21:0.57150001 22:0.47429855 
0.10000000000000001 1:3 2:45 3:0.018376522 4:0.03092629 5:0.048184392 6:0.070900827 7:0.099825596 8:0.1357087 9:0.17930013 10:0.2313499 11:0.292608 12:0.36382444 13:0.44574921 14:0.53913231 15:0.64472374 16:0.76327351 17:0.89553161 18:0.95890936 19:0.82031792 20:0.69576815 21:0.58451005 22:0.48579362 
0.10000000000000001 1:3 2:45 3:0.016963587 4:0.028918738 5:0.045478055 6:0.067391539 7:0.095409189 8:0.13028101 9:0.17275699 10:0.22358714 11:0.28352146 12:0.35330994 13:0.43370259 14:0.52544941 15:0.62930039 16:0.74600554 17:0.87631486 18:0.97931101 19:0.83871002 20:0.71225487 21:0.59919556 22:0.49878207 
0.10000000000000001 1:3 2:45 3:0.015495153 4:0.026812934 5:0.042620298 6:0.063667245 7:0.090703776 8:0.12447989 9:0.16574559 10:0.21525087 11:0.27374573 12:0.34198018 13:0.42070421 14:0.51066782 15:0.61262102 16:0.7273138 17:0.85549617 18:0.99791811 19:0.85925658 20:0.7306888 21:0.61563144 22:0.51333449 
0.10000000000000001 1:3 2:45 3:0.014358751 4:0.025168068 5:0.040373218 6:0.060724202 7:0.086971019 8:0.11986367 9:0.16015215 10:0.20858647 11:0.26591662 12:0.3328926 13:0.41026442 14:0.49878207 15:0.59919556 16:0.71225487 17:0.83871002 18:0.97931101 19:0.87631486 20:0.74600554 21:0.62930039 22:0.52544941 
0.10000000000000001 1:3 2:45 3:0.013047029 4:0.023250805 5:0.037735831 6:0.057252107 7:0.082549633 8:0.11437841 9:0.15348843 10:0.20062971 11:0.25655224 12:0.32200601 13:0.39774104 14:0.48450732 15:0.58305484 16:0.69413362 17:0.81849364 18:0.95688492 19:0.8974686 20:0.76501482 21:0.64627979 22:0.54051352 
0.10000000000000001 1:3 2:45 3:0.011926149 4:0.021594624 5:0.035440182 6:0.054212824 7:0.078662549 8:0.10953936 9:0.14759325 10:0.19357422 11:0.24823228 12:0.31231742 13:0.38657965 14:0.47176896 15:0.56863535 16:0.67792883 17:0.80039938 18:0.93679703 19:0.91699225 20:0.78257378 21:0.66197822 22:0.55445558 
0.10000000000000001 1:3 2:45 3:0.010973937 4:0.020173011 5:0.033455418 6:0.051571159 7:0.075270233 8:0.10530264 9:0.14241838 10:0.18736746 11:0.24089986 12:0.3037656 13:0.37671468 14:0.46049709 15:0.55586283 16:0.6635619 17:0.78434431 18:0.91896005 19:0.93480384 20:0.79860477 21:0.67632236 22:0.56720662 
0.10000000000000001 1:3 2:45 3:0.0099769456 4:0.018668207 5:0.031338635 6:0.04873823 7:0.071616992 8:0.10072492 9:0.13681202 10:0.18062828 11:0.2329237 12:0.2944483 13:0.36595206 14:0.44818499 15:0.54189708 16:0.64783835 17:0.76675877 18:0.89940837 19:0.95486333 20:0.81667207 21:0.69250164 22:0.58160205 
0.10000000000000001 1:3 2:45 3:0.008952124 4:0.017101502 5:0.029115463 6:0.045744008 7:0.067737136 8:0.095844847 9:0.13081714 10:0.17340402 11:0.22435548 12:0.28442153 13:0.35435215 14:0.43489736 15:0.52680716 16:0.63083154 17:0.7477205 18:0.87822404 19:0.97725795 20:0.83685857 21:0.71059461 22:0.59771606 
0.10000000000000001 1:3 2:45 3:0.0081678268 4:0.015886866 5:0.027376739 6:0.043387445 7:0.064668984 8:0.091971357 9:0.12604456 10:0.1676386 11:0.21750347 12:0.27638918 13:0.34504572 14:0.42422309 15:0.5146713 16:0.61714034 17:0.73238021 18:0.86114092 19:0.99583912 20:0.85362008 21:0.72563021 22:0.6111195 
0.10000000000000001 1:3 2:45 3:0.0072731934 4:0.014482178 5:0.025347412 6:0.040618896 7:0.061046631 8:0.087380615 9:0.12037085 10:0.16076733 11:0.20932007 12:0.26677905 13:0.33389429 14:0.41141577 15:0.50009351 16:0.60067749 17:0.71391772 18:0.84056421 19:0.98136694 20:0.87440845 21:0.74429321 22:0.62777173 
0.10000000000000001 1:3 2:45 3:0.0065188256 4:0.013279315 5:0.023591887 6:0.038206543 7:0.057873282 8:0.083342104 9:0.11536301 10:0.154686 11:0.20206107 12:0.25823823 13:0.32396747 14:0.39999879 15:0.48708219 16:0.58596768 17:0.69740526 18:0.82214491 19:0.96093665 20:0.89359742 21:0.76153485 22:0.64317019 
0.10000000000000001 1:3 2:45 3:0.0058861668 4:0.01225538 5:0.022082926 6:0.036118806 7:0.055113019 8:0.079815565 9:0.11097644 10:0.14934566 11:0.1956732 12:0.25070908 13:0.3152033 14:0.38990584 15:0.47556672 16:0.57293594 17:0.68276348 18:0.80579936 19:0.94279357 20:0.91110573 21:0.77727819 22:0.65724231 
0.10000000000000001 1:3 2:45 3:0.0052327809 4:0.011180987 5:0.02048336 6:0.033889899 7:0.052150605 8:0.076015478 9:0.10623452 10:0.14355772 11:0.1887351 12:0.24251664 13:0.30565234 14:0.37889221 15:0.46298625 16:0.55868446 17:0.66673683 18:0.78789337 19:0.92290408 20:0.93082596 21:0.79502358 22:0.67311705 
0.10000000000000001 1:3 2:45 3:0.0045720001 4:0.010073808 5:0.0188152 6:0.031546175 7:0.049016734 8:0.071976876 9:0.1011766 10:0.13736591 11:0.1812948 12:0.23371328 13:0.29537133 14:0.36701898 15:0.4494062 16:0.54328301 17:0.6493994 18:0.76850538 19:0.90135094 20:0.95284459 21:0.8148532 22:0.69087223 
0.10000000000000001 1:3 2:45 3:0.0040747037 4:0.0092242986 5:0.017519727 6:0.029710988 7:0.046548083 8:0.068781012 9:0.097159773 10:0.13243437 11:0.1753548 12:0.22667106 13:0.28713315 14:0.35749108 15:0.43849484 16:0.53089444 17:0.63543987 18:0.75288113 19:0.88396822 20:0.97111598 21:0.83132055 22:0.70562929 
0.10000000000000001 1:3 2:45 3:0.0035175872 4:0.0082526132 5:0.016018889 6:0.027566415 7:0.043645191 8:0.065005217 9:0.092396493 10:0.12656902 11:0.1682728 12:0.21825782 13:0.2772741 14:0.34607162 15:0.4254004 16:0.51601043 17:0.6186517 18:0.73407423 19:0.863028 20:0.99376301 21:0.85174674 22:0.72394921 
0.10000000000000001 1:3 2:45 3:0.0030573938 4:0.00743073 5:0.01473115 6:0.025708652 7:0.041113239 8:0.061694908 9:0.088203661 10:0.1213895 11:0.16200242 12:0.21079242 13:0.26850951 14:0.33590368 15:0.41372493 16:0.50272326 17:0.60364868 18:0.71725119 19:0.84428077 20:0.98548744 21:0.87060392 22:0.74087642 
0.10000000000000001 1:3 2:45 3:0.0026791838 4:0.006739369 5:0.013632888 6:0.024109739 7:0.038919925 8:0.058813443 9:0.084540295 10:0.11685048 11:0.156494 12:0.20422085 13:0.26078104 14:0.32692455 15:0.40340141 16:0.49096159 17:0.59035511 18:0.70233196 19:0.82764215 20:0.96703567 21:0.88781156 22:0.75633471 
0.10000000000000001 1:3 2:45 3:0.0022970652 4:0.006023049 5:0.012478199 6:0.022412517 7:0.036576 8:0.055718651 9:0.080590468 10:0.11194145 11:0.1505216 12:0.19708092 13:0.2523694 14:0.31713705 15:0.39213387 16:0.47810985 17:0.57581501 18:0.68599932 19:0.80941281 20:0.94680546 21:0.90719541 22:0.77376109 
0.10000000000000001 1:3 2:45 3:0.0019207534 4:0.0052958258 5:0.011285481 6:0.02063972 7:0.034108543 8:0.052441948 9:0.076389937 10:0.10670251 11:0.14412967 12:0.1894214 13:0.24332773 14:0.30659863 15:0.37998412 16:0.46423419 17:0.56009885 18:0.66832809 19:0.78967191 20:0.92488032 21:0.92884125 22:0.79323702 
0.10000000000000001 1:3 2:45 3:0.0016453538 4:0.0047463376 5:0.010368155 6:0.019260805 7:0.032174289 8:0.049858606 9:0.073063757 10:0.10253974 11:0.13903656 12:0.18330421 13:0.23609269 14:0.29815201 15:0.37023216 16:0.45308314 17:0.54745496 18:0.65409761 19:0.77376109 20:0.90719541 21:0.94680546 22:0.80941281 
-0.10000000000000001 1:3 2:45 3:0.0013461824 4:0.0041280834 5:0.0093162344 6:0.017660635 7:0.029911287 8:0.046818188 9:0.069131339 10:0.09760074 11:0.13297639 12:0.17600829 13:0.22744644 14:0.28804084 15:0.35854149 16:0.4396984 17:0.53226155 18:0.63698095 19:0.7546066 20:0.8858885 21:0.96907439 22:0.82947999 
-0.10000000000000001 1:3 2:45 3:0.0011078254 4:0.0036148422 5:0.0084239423 6:0.016285126 7:0.027948393 8:0.044163743 9:0.065681176 10:0.093250693 11:0.12762229 12:0.16954598 13:0.21977174 14:0.27904959 15:0.34812953 16:0.42776154 17:0.51869564 18:0.62168183 19:0.73747009 20:0.86681044 21:0.98961946 22:0.84800828 
-0.10000000000000001 1:3 2:45 3:0.00091896005 4:0.0031909508 5:0.0076712749 6:0.015109932 7:0.026256923 8:0.041862247 9:0.062675904 10:0.089447895 11:0.12292822 12:0.16386688 13:0.21301387 14:0.27111919 15:0.33893285 16:0.41720484 17:0.50668516 18:0.60812382 19:0.72227081 20:0.84987614 21:0.99168979 22:0.86491785 
-0.10000000000000001 1:3 2:45 3:0.00073577085 4:0.0027603658 5:0.0068891273 6:0.013872056 7:0.02445915 8:0.039400412 9:0.05944584 10:0.085345435 11:0.1178492 12:0.15770713 13:0.20566922 14:0.26248548 15:0.32890591 16:0.4056805 17:0.49355927 18:0.59329219 19:0.70562929 20:0.83132055 21:0.97111598 22:0.88396822 
-0.10000000000000001 1:3 2:45 3:0.00056435634 4:0.0023335259 5:0.0060922788 6:0.012590615 7:0.022578535 8:0.036806037 9:0.056023124 10:0.080979793 11:0.11242605 12:0.15111188 13:0.1977873 14:0.2532023 15:0.31810689 16:0.39325106 17:0.47938481 18:0.57725815 19:0.68762107 20:0.81122357 21:0.94881566 22:0.90524445 
-0.10000000000000001 1:3 2:45 3:0.00044574921 4:0.0020189552 5:0.0054879946 6:0.011602867 7:0.021113573 8:0.034770113 9:0.053322485 10:0.077520691 11:0.10811473 12:0.1458546 13:0.19149031 14:0.24577185 15:0.30944922 16:0.38327243 17:0.46799147 18:0.56435634 19:0.67311705 20:0.79502358 21:0.93082596 22:0.92290408 
-0.10000000000000001 1:3 2:45 3:0.00032495117 4:0.0016745605 5:0.0048054199 6:0.010467529 7:0.019410889 8:0.032385498 9:0.050141357 10:0.073428467 11:0.10299683 12:0.13959644 13:0.18397729 14:0.2368894 15:0.29908276 16:0.37130737 17:0.45431323 18:0.54885034 19:0.6556687 20:0.77551831 21:0.90914917 22:0.9447981 
-0.10000000000000001 1:3 2:45 3:0.00024414062 4:0.0014238281 5:0.0042910156 6:0.0095957031 7:0.018087891 8:0.030517578 9:0.047634766 10:0.070189453 11:0.098931641 12:0.13461133 13:0.17797852 14:0.2297832 15:0.29077539 16:0.36170508 17:0.44332227 18:0.53637695 19:0.64161914 20:0.75979883 21:0.89166602 22:0.9629668 
-0.10000000000000001 1:3 2:45 3:0.00017146776 4:0.0011760974 5:0.0037640604 6:0.0086853567 7:0.016689986 8:0.028527949 9:0.044949246 10:0.066703875 11:0.094541838 12:0.12921313 13:0.17146776 14:0.22205573 15:0.28172702 16:0.35123165 17:0.43131962 18:0.52274091 19:0.62624554 20:0.7425835 21:0.8725048 22:0.98342575 
-0.10000000000000001 1:3 2:45 3:0.00011487001 4:0.00095890936 5:0.0032821154 6:0.0078344881 7:0.015366027 8:0.026626733 9:0.042366606 10:0.063335645 11:0.090283851 12:0.12396122 13:0.16511776 14:0.21450347 15:0.27286834 16:0.34096238 17:0.41953559 18:0.50933796 19:0.6111195 20:0.72563021 21:0.85362008 22:0.99583912 
-0.10000000000000001 1:3 2:45 3:6.8781012e-05 4:0.00075288113 5:0.0028015646 6:0.0069648314 7:0.013992681 8:0.024635115 9:0.039642132 10:0.059763732 11:0.085749915 12:0.11835068 13:0.15831603 14:0.20639597 15:0.26334048 16:0.32989958 17:0.40682327 18:0.49486153 19:0.59476438 20:0.70728182 21:0.83316383 22:0.97316043 
-0.10000000000000001 1:3 2:45 3:3.9400412e-05 4:0.00059329219 5:0.0024076006 6:0.0062323258 7:0.012817468 8:0.022913026 9:0.037269001 10:0.056635393 11:0.081762201 12:0.11339943 13:0.15229707 14:0.19920513 15:0.2548736 16:0.32005249 17:0.3954918 18:0.48194153 19:0.58015167 20:0.69087223 21:0.8148532 22:0.95284459 
-0.10000000000000001 1:3 2:45 3:1.9865813e-05 4:0.00045801685 5:0.0020524179 6:0.0055530689 7:0.01170997 8:0.021273121 9:0.034992522 10:0.053618173 11:0.077900074 12:0.10858823 13:0.14643263 14:0.19218328 15:0.24659018 16:0.31040333 17:0.38437273 18:0.46924838 19:0.56578028 20:0.67471843 21:0.79681283 22:0.93281349 
-0.10000000000000001 1:3 2:45 3:9.0422454e-06 4:0.00035539641 5:0.0017642506 6:0.0049856047 7:0.010769459 8:0.019865813 9:0.033024667 10:0.050996021 11:0.074529876 12:0.10437623 13:0.14128508 14:0.18600644 15:0.23929029 16:0.30188665 17:0.3745455 18:0.45801685 19:0.55305071 20:0.66039706 21:0.78080592 22:0.91502727 
-0.10000000000000001 1:3 2:45 3:2.6791838e-06 4:0.00026078104 5:0.0014772162 6:0.0044019847 7:0.0097850866 8:0.018376522 9:0.03092629 10:0.048184392 11:0.070900827 12:0.099825596 13:0.1357087 14:0.17930013 15:0.2313499 16:0.292608 17:0.36382444 18:0.44574921 19:0.53913231 20:0.64472374 21:0.76327351 22:0.89553161 
-0.10000000000000001 1:3 2:45 3:3.3489798e-07 4:0.00018465203 5:0.0012231358 6:0.0038657863 7:0.0088626034 8:0.016963587 9:0.028918738 10:0.045478055 11:0.067391539 12:0.095409189 13:0.13028101 14:0.17275699 15:0.22358714 16:0.28352146 17:0.35330994 18:0.43370259 19:0.52544941 20:0.62930039 21:0.74600554 22:0.87631486 
-0.10000000000000001 1:1 2:45 3:0.99791811 4:0.85925658 5:0.7306888 6:0.61563144 7:0.51333449 8:0.42304796 9:0.34402185 10:0.27550615 11:0.21675087 12:0.167006 13:0.12552156 14:0.091547526 15:0.064333912 16:0.043130715 17:0.027187934 18:0.01575557 19:0.008083623 20:0.0034220923 21:0.0010209783 22:0.00013028101 
-0.10000000000000001 1:1 2:45 3:0.97725795 4:0.87822404 5:0.7477205 6:0.63083154 7:0.52680716 8:0.43489736 9:0.35435215 10:0.28442153 11:0.22435548 12:0.17340402 13:0.13081714 14:0.095844847 15:0.067737136 16:0.045744008 17:0.029115463 18:0.017101502 19:0.008952124 20:0.0039173294 21:0.0012471182 22:0.00019149031 
-0.10000000000000001 1:1 2:45 3:0.95688492 4:0.8974686 5:0.76501482 6:0.64627979 7:0.54051352 8:0.44696599 9:0.36488722 10:0.29352719 11:0.23213591 12:0.17996339 13:0.13625961 14:0.10027459 15:0.07125831 16:0.048460784 17:0.031132008 18:0.018521982 19:0.0098807057 20:0.0044581796 21:0.0015044036 22:0.00026937753 
-0.10000000000000001 1:1 2:45 3:0.93879304 4:0.91502727 5:0.78080592 6:0.66039706 7:0.55305071 8:0.45801685 9:0.3745455 10:0.30188665 11:0.23929029 12:0.18600644 13:0.14128508 14:0.10437623 15:0.074529876 16:0.050996021 17:0.033024667 18:0.019865813 19:0.010769459 20:0.0049856047 21:0.0017642506 22:0.00035539641 
-0.10000000000000001 1:1 2:45 3:0.91699225 4:0.93679703 5:0.80039938 6:0.67792883 7:0.56863535 8:0.47176896 9:0.38657965 10:0.31231742 11:0.24823228 12:0.19357422 13:0.14759325 14:0.10953936 15:0.078662549 16:0.054212824 17:0.035440182 18:0.021594624 19:0.011926149 20:0.0056847569 21:0.0021204484 22:0.00048322329 
-0.10000000000000001 1:1 2:45 3:0.8974686 4:0.95688492 5:0.81849364 6:0.69413362 7:0.58305484 8:0.48450732 9:0.39774104 10:0.32200601 11:0.25655224 12:0.20062971 13:0.15348843 14:0.11437841 15:0.082549633 16:0.057252107 17:0.037735831 18:0.023250805 19:0.013047029 20:0.0063745027 21:0.0024832266 22:0.00062320059 
-0.10000000000000001 1:1 2:45 3:0.87822404 4:0.97725795 5:0.83685857 6:0.71059461 7:0.59771606 8:0.49747293 9:0.40911522 10:0.33189293 11:0.26505605 12:0.20785459 13:0.15953854 14:0.11935792 15:0.086562705 16:0.060402911 17:0.040128533 18:0.024989572 19:0.014236027 20:0.0071178992 21:0.0028851879 22:0.00078789337 
-0.10000000000000001 1:1 2:45 3:0.85925658 4:0.99791811 5:0.85549617 6:0.7273138 7:0.61262102 8:0.51066782 9:0.42070421 10:0.34198018 11:0.27374573 12:0.21525087 13:0.16574559 14:0.12447989 15:0.090703776 16:0.063667245 17:0.042620298 18:0.026812934 19:0.015495153 20:0.0079169557 21:0.0033283417 22:0.00097931101 
-0.10000000000000001 1:1 2:45 3:0.84056421 4:0.98136694 5:0.87440845 6:0.74429321 7:0.62777173 8:0.52409399 9:0.43251001 10:0.35226978 11:0.28262329 12:0.22282056 13:0.17211157 14:0.12974634 15:0.094974854 16:0.067047119 17:0.045213135 18:0.0287229 19:0.016826416 20:0.0087736816 21:0.0038146973 22:0.0011994629 
-0.10000000000000001 1:1 2:45 3:0.82397461 4:0.9629668 5:0.89166602 6:0.75979883 7:0.64161914 8:0.53637695 9:0.44332227 10:0.36170508 11:0.29077539 12:0.2297832 13:0.17797852 14:0.13461133 15:0.098931641 16:0.070189453 17:0.047634766 18:0.030517578 19:0.018087891 20:0.0095957031 21:0.0042910156 22:0.0014238281 
-0.10000000000000001 1:1 2:45 3:0.80579936 4:0.94279357 5:0.91110573 6:0.77727819 7:0.65724231 8:0.55024809 9:0.45554555 10:0.37238467 11:0.30001545 12:0.23768791 13:0.18465203 14:0.14015781 15:0.10345527 16:0.073794389 17:0.050425176 18:0.032597629 19:0.01956175 20:0.010567537 21:0.0048649906 22:0.0017041109 
-0.10000000000000001 1:1 2:45 3:0.78789337 4:0.92290408 5:0.93082596 6:0.79502358 7:0.67311705 8:0.56435634 9:0.46799147 10:0.38327243 11:0.30944922 12:0.24577185 13:0.19149031 14:0.1458546 15:0.10811473 16:0.077520691 17:0.053322485 18:0.034770113 19:0.021113573 20:0.011602867 21:0.0054879946 22:0.0020189552 
-0.10000000000000001 1:1 2:45 3:0.76850538 4:0.90135094 5:0.95284459 6:0.8148532 7:0.69087223 8:0.58015167 9:0.48194153 10:0.3954918 11:0.32005249 12:0.2548736 13:0.19920513 14:0.15229707 15:0.11339943 16:0.081762201 17:0.056635393 18:0.037269001 19:0.022913026 20:0.012817468 21:0.0062323258 22:0.0024076006 
-0.10000000000000001 1:1 2:45 3:0.75288113 4:0.88396822 5:0.97111598 6:0.83132055 7:0.70562929 8:0.59329219 9:0.49355927 10:0.4056805 11:0.32890591 12:0.26248548 13:0.20566922 14:0.15770713 15:0.1178492 16:0.085345435 17:0.05944584 18:0.039400412 19:0.02445915 20:0.013872056 21:0.0068891273 22:0.0027603658 
-0.10000000000000001 1:1 2:45 3:0.73407423 4:0.863028 5:0.99376301 6:0.85174674 7:0.72394921 8:0.60962043 9:0.50801041 10:0.41836913 11:0.33994661 12:0.27199283 13:0.2137578 14:0.16449153 15:0.123444 16:0.089865225 17:0.063005199 18:0.042113923 19:0.026441397 20:0.015237621 21:0.0077525951 22:0.0032363191 
-0.10000000000000001 1:1 2:45 3:0.7189218 4:0.84614316 5:0.98755201 6:0.8687058 7:0.73917195 8:0.62320059 9:0.52004174 10:0.42894538 11:0.34916153 12:0.27994018 13:0.22053132 14:0.17018497 15:0.12815111 16:0.09367976 17:0.066020906 18:0.044424552 19:0.028140697 20:0.016419343 21:0.008510489 22:0.0036641348 
-0.10000000000000001 1:1 2:45 3:0.70233196 4:0.82764215 5:0.96703567 6:0.88781156 7:0.75633471 8:0.63852452 9:0.533631 10:0.44090415 11:0.35959396 12:0.28895045 13:0.22822359 14:0.17666341 15:0.13351989 16:0.098043038 17:0.069482853 18:0.047089335 19:0.030112483 20:0.017802298 21:0.0094087791 22:0.0041819273 
-0.10000000000000001 1:1 2:45 3:0.68599932 4:0.80941281 5:0.94680546 6:0.90719541 7:0.77376109 8:0.65409761 9:0.54745496 10:0.45308314 11:0.37023216 12:0.29815201 13:0.23609269 14:0.18330421 15:0.13903656 16:0.10253974 17:0.073063757 18:0.049858606 19:0.032174289 20:0.019260805 21:0.010368155 22:0.0047463376 
-0.10000000000000001 1:1 2:45 3:0.66992188 4:0.79145313 5:0.92685937 6:0.92685937 7:0.79145313 8:0.66992188 9:0.56151562 10:0.46548438 11:0.38107812 12:0.30754688 13:0.24414062 14:0.19010937 15:0.14470313 16:0.10717187 17:0.076765625 18:0.052734375 19:0.034328125 20:0.020796875 21:0.011390625 22:0.005359375 
-0.10000000000000001 1:1 2:45 3:0.65409761 4:0.77376109 5:0.90719541 6:0.94680546 7:0.80941281 8:0.68599932 9:0.57581501 10:0.47810985 11:0.39213387 12:0.31713705 13:0.2523694 14:0.19708092 15:0.1505216 16:0.11194145 17:0.080590468 18:0.055718651 19:0.036576 20:0.022412517 21:0.012478199 22:0.006023049 
-0.10000000000000001 1:1 2:45 3:0.63698095 4:0.7546066 5:0.8858885 6:0.96907439 7:0.82947999 8:0.70397934 9:0.59182244 10:0.49225929 11:0.40453989 12:0.32791423 13:0.26163233 14:0.20494418 15:0.15709978 16:0.11734913 17:0.084942229 18:0.059129078 19:0.039159677 20:0.024284026 21:0.013752125 22:0.0068139739 
-0.10000000000000001 1:1 2:45 3:0.62168183 4:0.73747009 5:0.86681044 6:0.98961946 7:0.84800828 8:0.72059501 9:0.60662966 10:0.50536223 11:0.41604271 12:0.33792111 13:0.27024743 14:0.21227166 15:0.16324381 16:0.12241388 17:0.089031859 18:0.062347759 19:0.041611576 20:0.026073309 21:0.014982959 22:0.0075905253 
-0.10000000000000001 1:1 2:45 3:0.60662966 4:0.72059501 5:0.84800828 6:0.98961946 7:0.86681044 8:0.73747009 9:0.62168183 10:0.51869564 11:0.42776154 12:0.34812953 13:0.27904959 14:0.21977174 15:0.16954598 16:0.12762229 17:0.093250693 18:0.065681176 19:0.044163743 20:0.027948393 21:0.016285126 22:0.0084239423 
-0.10000000000000001 1:1 2:45 3:0.59182244 4:0.70397934 5:0.82947999 6:0.96907439 7:0.8858885 8:0.7546066 9:0.63698095 10:0.53226155 11:0.4396984 12:0.35854149 13:0.28804084 14:0.22744644 15:0.17600829 16:0.13297639 17:0.09760074 18:0.069131339 19:0.046818188 20:0.029911287 21:0.017660635 22:0.0093162344 
-0.10000000000000001 1:1 2:45 3:0.57725815 4:0.68762107 5:0.81122357 6:0.94881566 7:0.90524445 8:0.77200653 9:0.65252903 10:0.54606195 11:0.45185528 12:0.36915902 13:0.29722319 14:0.23529777 15:0.18263276 16:0.13847818 17:0.10208401 18:0.072700256 19:0.04957692 20:0.031964 21:0.019111497 22:0.010269411 
-0.10000000000000001 1:1 2:45 3:0.56293479 4:0.67151819 5:0.79323702 6:0.92884125 7:0.92488032 8:0.78967191 9:0.66832809 10:0.56009885 11:0.46423419 12:0.37998412 13:0.30659863 14:0.24332773 15:0.1894214 16:0.14412967 17:0.10670251 18:0.076389937 19:0.052441948 20:0.034108543 21:0.02063972 22:0.011285481 
-0.10000000000000001 1:1 2:45 3:0.54885034 4:0.6556687 5:0.77551831 6:0.90914917 7:0.9447981 8:0.80760474 9:0.68438013 10:0.57437427 11:0.47683716 12:0.3910188 13:0.31616919 14:0.25153833 15:0.19637622 16:0.14993286 17:0.11145825 18:0.080202393 19:0.055415283 20:0.036346924 21:0.022247314 22:0.012366455 
-0.10000000000000001 1:1 2:45 3:0.5350028 4:0.64007058 5:0.75806545 6:0.88973739 7:0.9649998 8:0.82580702 9:0.70068716 10:0.58889021 11:0.48966618 12:0.40226506 13:0.32593687 14:0.25993159 15:0.20349922 16:0.15588978 17:0.11635324 18:0.084139631 19:0.058498933 20:0.038681153 21:0.023936289 22:0.013514341 
-0.10000000000000001 1:1 2:45 3:0.52139016 4:0.62472183 5:0.74087642 6:0.87060392 7:0.98548744 8:0.84428077 9:0.71725119 10:0.60364868 11:0.50272326 12:0.41372493 13:0.33590368 14:0.26850951 15:0.21079242 16:0.16200242 17:0.1213895 18:0.088203661 19:0.061694908 20:0.041113239 21:0.025708652 22:0.01473115 
-0.10000000000000001 1:1 2:45 3:0.50933796 4:0.6111195 5:0.72563021 6:0.85362008 7:0.99583912 8:0.86114092 9:0.73238021 10:0.61714034 11:0.5146713 12:0.42422309 13:0.34504572 14:0.27638918 15:0.21750347 16:0.1676386 17:0.12604456 18:0.091971357 19:0.064668984 20:0.043387445 21:0.027376739 22:0.015886866 
-0.10000000000000001 1:1 2:45 3:0.49616609 4:0.596239 5:0.70893692 6:0.83500984 7:0.97520775 8:0.880136 9:0.74943808 10:0.63236516 11:0.52816725 12:0.43609433 13:0.35539641 14:0.2853235 15:0.22512558 16:0.17405266 17:0.13135475 18:0.096281829 19:0.068083912 20:0.046010995 21:0.029313079 22:0.017240162 
-0.10000000000000001 1:1 2:45 3:0.48322329 4:0.58160205 5:0.69250164 6:0.81667207 7:0.95486333 8:0.89940837 9:0.76675877 10:0.64783835 11:0.54189708 12:0.44818499 13:0.36595206 14:0.2944483 15:0.2329237 16:0.18062828 17:0.13681202 18:0.10072492 19:0.071616992 20:0.04873823 21:0.031338635 22:0.018668207 
-0.10000000000000001 1:1 2:45 3:0.46924838 4:0.56578028 5:0.67471843 6:0.79681283 7:0.93281349 8:0.92093066 9:0.7861175 10:0.6651481 11:0.55727245 12:0.46174055 13:0.3778024 14:0.304708 15:0.24170735 16:0.18805045 17:0.1429873 18:0.10576789 19:0.075642244 20:0.051860343 21:0.033672191 22:0.02032779 
-0.10000000000000001 1:1 2:45 3:0.45801685 4:0.55305071 5:0.66039706 6:0.78080592 7:0.91502727 8:0.93879304 9:0.80219669 10:0.67953783 11:0.57006648 12:0.47303262 13:0.38768627 14:0.31327742 15:0.24905606 16:0.19427221 17:0.14817585 18:0.110017 19:0.079045645 20:0.054511791 21:0.035665437 22:0.021756583 
-0.10000000000000001 1:1 2:45 3:0.44574921 4:0.53913231 5:0.64472374 6:0.76327351 7:0.89553161 8:0.95890936 9:0.82031792 10:0.69576815 11:0.58451005 12:0.48579362 13:0.39886885 14:0.32298575 15:0.25739431 16:0.20134454 17:0.15408644 18:0.11487001 19:0.082945237 20:0.057562136 21:0.0379707 22:0.023420932 
-0.10000000000000001 1:1 2:45 3:0.43370259 4:0.52544941 5:0.62930039 6:0.74600554 7:0.87631486 8:0.97931101 9:0.83871002 10:0.71225487 11:0.59919556 12:0.49878207 13:0.41026442 14:0.3328926 15:0.26591662 16:0.20858647 17:0.16015215 18:0.11986367 19:0.086971019 20:0.060724202 21:0.040373218 22:0.025168068 
-0.10000000000000001 1:1 2:45 3:0.421875 4:0.512 5:0.614125 6:0.729 7:0.857375 8:1 9:0.857375 10:0.729 11:0.614125 12:0.512 13:0.421875 14:0.343 15:0.274625 16:0.216 17:0.166375 18:0.125 19:0.091125 20:0.064 21:0.042875 22:0.027 
-0.10000000000000001 1:1 2:45 3:0.41026442 4:0.49878207 5:0.59919556 6:0.71225487 7:0.83871002 8:0.97931101 9:0.87631486 10:0.74600554 11:0.62930039 12:0.52544941 13:0.43370259 14:0.35330994 15:0.28352146 16:0.22358714 17:0.17275699 18:0.13028101 19:0.095409189 20:0.067391539 21:0.045478055 22:0.028918738 
-0.10000000000000001 1:1 2:45 3:0.39774104 4:0.48450732 5:0.58305484 6:0.69413362 7:0.81849364 8:0.95688492 9:0.8974686 10:0.76501482 11:0.64627979 12:0.54051352 13:0.44696599 14:0.36488722 15:0.29352719 16:0.23213591 17:0.17996339 18:0.13625961 19:0.10027459 20:0.07125831 21:0.048460784 22:0.031132008 
-0.10000000000000001 1:1 2:45 3:0.38657965 4:0.47176896 5:0.56863535 6:0.67792883 7:0.80039938 8:0.93679703 9:0.91699225 10:0.78257378 11:0.66197822 12:0.55445558 13:0.45925585 14:0.37562905 15:0.30282515 16:0.24009418 17:0.18668612 18:0.14185098 19:0.10483875 20:0.074899445 21:0.051283053 22:0.033239578 
-0.10000000000000001 1:1 2:45 3:0.37562905 4:0.45925585 5:0.55445558 6:0.66197822 7:0.78257378 8:0.91699225 9:0.93679703 10:0.80039938 11:0.67792883 12:0.56863535 13:0.47176896 14:0.38657965 15:0.31231742 16:0.24823228 17:0.19357422 18:0.14759325 19:0.10953936 20:0.078662549 21:0.054212824 22:0.035440182 
-0.10000000000000001 1:1 2:45 3:0.36488722 4:0.44696599 5:0.54051352 6:0.64627979 7:0.76501482 8:0.8974686 9:0.95688492 10:0.81849364 11:0.69413362 12:0.58305484 13:0.48450732 14:0.39774104 15:0.32200601 16:0.25655224 17:0.20062971 18:0.15348843 19:0.11437841 20:0.082549633 21:0.057252107 22:0.037735831 
-0.10000000000000001 1:1 2:45 3:0.35435215 4:0.43489736 5:0.52680716 6:0.63083154 7:0.7477205 8:0.87822404 9:0.97725795 10:0.83685857 11:0.71059461 12:0.59771606 13:0.49747293 14:0.40911522 15:0.33189293 16:0.26505605 17:0.20785459 18:0.15953854 19:0.11935792 20:0.086562705 21:0.060402911 22:0.040128533 
-0.10000000000000001 1:1 2:45 3:0.34402185 4:0.42304796 5:0.51333449 6:0.61563144 7:0.7306888 8:0.85925658 9:0.99791811 10:0.85549617 11:0.7273138 12:0.61262102 13:0.51066782 14:0.42070421 15:0.34198018 16:0.27374573 17:0.21525087 18:0.16574559 19:0.12447989 20:0.090703776 21:0.063667245 22:0.042620298 
-0.10000000000000001 1:1 2:45 3:0.33389429 4:0.41141577 5:0.50009351 6:0.60067749 7:0.71391772 8:0.84056421 9:0.98136694 10:0.87440845 11:0.74429321 12:0.62777173 13:0.52409399 14:0.43251001 15:0.35226978 16:0.28262329 17:0.22282056 18:0.17211157 19:0.12974634 20:0.094974854 21:0.067047119 22:0.045213135 
-0.10000000000000001 1:1 2:45 3:0.32396747 4:0.39999879 5:0.48708219 6:0.58596768 7:0.69740526 8:0.82214491 9:0.96093665 10:0.89359742 11:0.76153485 12:0.64317019 13:0.53775345 14:0.44453463 15:0.36276373 16:0.29169074 17:0.23056567 18:0.17863851 19:0.13515927 20:0.099377948 21:0.070544542 22:0.047909053 
-0.10000000000000001 1:1 2:45 3:0.3152033 4:0.38990584 5:0.47556672 6:0.57293594 7:0.68276348 8:0.80579936 9:0.94279357 10:0.91110573 11:0.77727819 12:0.65724231 13:0.55024809 14:0.45554555 15:0.37238467 16:0.30001545 17:0.23768791 18:0.18465203 19:0.14015781 20:0.10345527 21:0.073794389 22:0.050425176 
-0.10000000000000001 1:1 2:45 3:0.30565234 4:0.37889221 5:0.46298625 6:0.55868446 7:0.66673683 8:0.78789337 9:0.92290408 10:0.93082596 11:0.79502358 12:0.67311705 13:0.56435634 14:0.46799147 15:0.38327243 16:0.30944922 17:0.24577185 18:0.19149031 19:0.1458546 20:0.10811473 21:0.077520691 22:0.053322485 
-0.10000000000000001 1:1 2:45 3:0.29537133 4:0.36701898 5:0.4494062 6:0.54328301 7:0.6493994 8:0.76850538 9:0.90135094 10:0.95284459 11:0.8148532 12:0.69087223 13:0.58015167 14:0.48194153 15:0.3954918 16:0.32005249 17:0.2548736 18:0.19920513 19:0.15229707 20:0.11339943 21:0.081762201 22:0.056635393 
-0.10000000000000001 1:1 2:45 3:0.28713315 4:0.35749108 5:0.43849484 6:0.53089444 7:0.63543987 8:0.75288113 9:0.88396822 10:0.97111598 11:0.83132055 12:0.70562929 13:0.59329219 14:0.49355927 15:0.4056805 16:0.32890591 17:0.26248548 18:0.20566922 19:0.15770713 20:0.1178492 21:0.085345435 22:0.05944584 
-0.10000000000000001 1:1 2:45 3:0.2772741 4:0.34607162 5:0.4254004 6:0.51601043 7:0.6186517 8:0.73407423 9:0.863028 10:0.99376301 11:0.85174674 12:0.72394921 13:0.60962043 14:0.50801041 15:0.41836913 16:0.33994661 17:0.27199283 18:0.2137578 19:0.16449153 20:0.123444 21:0.089865225 22:0.063005199 
-0.10000000000000001 1:1 2:45 3:0.26850951 4:0.33590368 5:0.41372493 6:0.50272326 7:0.60364868 8:0.71725119 9:0.84428077 10:0.98548744 11:0.87060392 12:0.74087642 13:0.62472183 14:0.52139016 15:0.43013141 16:0.35019557 17:0.28083265 18:0.22129265 19:0.17082556 20:0.12868139 21:0.094110141 22:0.066361805 
-0.10000000000000001 1:1 2:45 3:0.26078104 4:0.32692455 5:0.40340141 6:0.49096159 7:0.59035511 8:0.70233196 9:0.82764215 10:0.96703567 11:0.88781156 12:0.75633471 13:0.63852452 14:0.533631 15:0.44090415 16:0.35959396 17:0.28895045 18:0.22822359 19:0.17666341 20:0.13351989 21:0.098043038 22:0.069482853 
-0.10000000000000001 1:1 2:45 3:0.2523694 4:0.31713705 5:0.39213387 6:0.47810985 7:0.57581501 8:0.68599932 9:0.80941281 10:0.94680546 11:0.90719541 12:0.77376109 13:0.65409761 14:0.54745496 15:0.45308314 16:0.37023216 17:0.29815201 18:0.23609269 19:0.18330421 20:0.13903656 21:0.10253974 22:0.073063757 
-0.10000000000000001 1:1 2:45 3:0.24332773 4:0.30659863 5:0.37998412 6:0.46423419 7:0.56009885 8:0.66832809 9:0.78967191 10:0.92488032 11:0.92884125 12:0.79323702 13:0.67151819 14:0.56293479 15:0.4667368 16:0.38217423 17:0.30849707 18:0.24495533 19:0.19079901 20:0.1452781 21:0.10764261 22:0.077142542 
-0.10000000000000001 1:1 2:45 3:0.23609269 4:0.29815201 5:0.37023216 6:0.45308314 7:0.54745496 8:0.65409761 9:0.77376109 10:0.90719541 11:0.94680546 12:0.80941281 13:0.68599932 14:0.57581501 15:0.47810985 16:0.39213387 17:0.31713705 18:0.2523694 19:0.19708092 20:0.1505216 21:0.11194145 22:0.080590468 
-0.10000000000000001 1:1 2:45 3:0.22744644 4:0.28804084 5:0.35854149 6:0.4396984 7:0.53226155 8:0.63698095 9:0.7546066 10:0.8858885 11:0.96907439 12:0.82947999 13:0.70397934 14:0.59182244 15:0.49225929 16:0.40453989 17:0.32791423 18:0.26163233 19:0.20494418 20:0.15709978 21:0.11734913 22:0.084942229 
-0.10000000000000001 1:1 2:45 3:0.21901391 4:0.2781609 5:0.34709956 6:0.42657988 7:0.51735187 8:0.62016553 9:0.73577085 10:0.86491785 11:0.99168979 12:0.84987614 13:0.72227081 14:0.60812382 15:0.50668516 16:0.41720484 17:0.33893285 18:0.27111919 19:0.21301387 20:0.16386688 21:0.12292822 22:0.089447895 
-0.10000000000000001 1:1 2:45 3:0.21301387 4:0.27111919 5:0.33893285 6:0.41720484 7:0.50668516 8:0.60812382 9:0.72227081 10:0.84987614 11:0.99168979 12:0.86491785 13:0.73577085 14:0.62016553 15:0.51735187 16:0.42657988 17:0.34709956 18:0.2781609 19:0.21901391 20:0.16890859 21:0.12709493 22:0.092822938 
-0.10000000000000001 1:1 2:45 3:0.20494418 4:0.26163233 5:0.32791423 6:0.40453989 7:0.49225929 8:0.59182244 9:0.70397934 10:0.82947999 11:0.96907439 12:0.8858885 13:0.7546066 14:0.63698095 15:0.53226155 16:0.4396984 17:0.35854149 18:0.28804084 19:0.22744644 20:0.17600829 21:0.13297639 22:0.09760074 
-0.10000000000000001 1:1 2:45 3:0.19708092 4:0.2523694 5:0.31713705 6:0.39213387 7:0.47810985 8:0.57581501 9:0.68599932 10:0.80941281 11:0.94680546 12:0.90719541 13:0.77376109 14:0.65409761 15:0.54745496 16:0.45308314 17:0.37023216 18:0.29815201 19:0.23609269 20:0.18330421 21:0.13903656 22:0.10253974 
-0.10000000000000001 1:1 2:45 3:0.19079901 4:0.24495533 5:0.30849707 6:0.38217423 7:0.4667368 8:0.56293479 9:0.67151819 10:0.79323702 11:0.92884125 12:0.92488032 13:0.78967191 14:0.66832809 15:0.56009885 16:0.46423419 17:0.37998412 18:0.30659863 19:0.24332773 20:0.1894214 21:0.14412967 22:0.10670251 
-0.10000000000000001 1:1 2:45 3:0.18397729 4:0.2368894 5:0.29908276 6:0.37130737 7:0.45431323 8:0.54885034 9:0.6556687 10:0.77551831 11:0.90914917 12:0.9447981 13:0.80760474 14:0.68438013 15:0.57437427 16:0.47683716 17:0.3910188 18:0.31616919 19:0.25153833 20:0.19637622 21:0.14993286 22:0.11145825 
-0.10000000000000001 1:1 2:45 3:0.17732015 4:0.22900251 5:0.28986196 6:0.36064849 7:0.44211211 8:0.5350028 9:0.64007058 10:0.75806545 11:0.88973739 12:0.9649998 13:0.82580702 14:0.70068716 15:0.58889021 16:0.48966618 17:0.40226506 18:0.32593687 19:0.25993159 20:0.20349922 21:0.15588978 22:0.11635324 
-0.10000000000000001 1:1 2:45 3:0.17082556 4:0.22129265 5:0.28083265 6:0.35019557 7:0.43013141 8:0.52139016 9:0.62472183 10:0.74087642 11:0.87060392 12:0.98548744 13:0.84428077 14:0.71725119 15:0.60364868 16:0.50272326 17:0.41372493 18:0.33590368 19:0.26850951 20:0.21079242 21:0.16200242 22:0.1213895 
-0.10000000000000001 1:1 2:45 3:0.16511776 4:0.21450347 5:0.27286834 6:0.34096238 7:0.41953559 8:0.50933796 9:0.6111195 10:0.72563021 11:0.85362008 12:0.99583912 13:0.86114092 14:0.73238021 15:0.61714034 16:0.5146713 17:0.42422309 18:0.34504572 19:0.27638918 20:0.21750347 21:0.1676386 22:0.12604456 
-0.10000000000000001 1:1 2:45 3:0.15831603 4:0.20639597 5:0.26334048 6:0.32989958 7:0.40682327 8:0.49486153 9:0.59476438 10:0.70728182 11:0.83316383 12:0.97316043 13:0.88205072 14:0.75115829 15:0.63390127 16:0.52952967 17:0.43729349 18:0.35644272 19:0.28622737 20:0.22589744 21:0.17470292 22:0.13189382 
-0.10000000000000001 1:1 2:45 3:0.15289198 4:0.19991657 5:0.255712 6:0.32102826 7:0.39661536 8:0.48322329 9:0.58160205 10:0.69250164 11:0.81667207 12:0.95486333 13:0.89940837 14:0.76675877 15:0.64783835 16:0.54189708 17:0.44818499 18:0.36595206 19:0.2944483 20:0.2329237 21:0.18062828 22:0.13681202 
-0.10000000000000001 1:1 2:45 3:0.14643263 4:0.19218328 5:0.24659018 6:0.31040333 7:0.38437273 8:0.46924838 9:0.56578028 10:0.67471843 11:0.79681283 12:0.93281349 13:0.92093066 14:0.7861175 15:0.6651481 16:0.55727245 17:0.46174055 18:0.3778024 19:0.304708 20:0.24170735 21:0.18805045 22:0.1429873 
-0.10000000000000001 1:1 2:45 3:0.14128508 4:0.18600644 5:0.23929029 6:0.30188665 7:0.3745455 8:0.45801685 9:0.55305071 10:0.66039706 11:0.78080592 12:0.91502727 13:0.93879304 14:0.80219669 15:0.67953783 16:0.57006648 17:0.47303262 18:0.38768627 19:0.31327742 20:0.24905606 21:0.19427221 22:0.14817585 
-0.10000000000000001 1:1 2:45 3:0.1357087 4:0.17930013 5:0.2313499 6:0.292608 7:0.36382444 8:0.44574921 9:0.53913231 10:0.64472374 11:0.76327351 12:0.89553161 13:0.95890936 14:0.82031792 15:0.69576815 16:0.58451005 17:0.48579362 18:0.39886885 19:0.32298575 20:0.25739431 21:0.20134454 22:0.15408644 
-0.10000000000000001 1:1 2:45 3:0.13028101 4:0.17275699 5:0.22358714 6:0.28352146 7:0.35330994 8:0.43370259 9:0.52544941 10:0.62930039 11:0.74600554 12:0.87631486 13:0.97931101 14:0.83871002 15:0.71225487 16:0.59919556 17:0.49878207 18:0.41026442 19:0.3328926 20:0.26591662 21:0.20858647 22:0.16015215 
-0.10000000000000001 1:1 2:45 3:0.12447989 4:0.16574559 5:0.21525087 6:0.27374573 7:0.34198018 8:0.42070421 9:0.51066782 10:0.61262102 11:0.7273138 12:0.85549617 13:0.99791811 14:0.85925658 15:0.7306888 16:0.61563144 17:0.51333449 18:0.42304796 19:0.34402185 20:0.27550615 21:0.21675087 22:0.167006 
-0.10000000000000001 1:1 2:45 3:0.11986367 4:0.16015215 5:0.20858647 6:0.26591662 7:0.3328926 8:0.41026442 9:0.49878207 10:0.59919556 11:0.71225487 12:0.83871002 13:0.97931101 14:0.87631486 15:0.74600554 16:0.62930039 17:0.52544941 18:0.43370259 19:0.35330994 20:0.28352146 21:0.22358714 22:0.17275699 
-0.10000000000000001 1:1 2:45 3:0.11437841 4:0.15348843 5:0.20062971 6:0.25655224 7:0.32200601 8:0.39774104 9:0.48450732 10:0.58305484 11:0.69413362 12:0.81849364 13:0.95688492 14:0.8974686 15:0.76501482 16:0.64627979 17:0.54051352 18:0.44696599 19:0.36488722 20:0.29352719 21:0.23213591 22:0.17996339 
0.10000000000000001 1:1 2:45 3:0.10953936 4:0.14759325 5:0.19357422 6:0.24823228 7:0.31231742 8:0.38657965 9:0.47176896 10:0.56863535 11:0.67792883 12:0.80039938 13:0.93679703 14:0.91699225 15:0.78257378 16:0.66197822 17:0.55445558 18:0.45925585 19:0.37562905 20:0.30282515 21:0.24009418 22:0.18668612 
0.10000000000000001 1:1 2:45 3:0.10483875 4:0.14185098 5:0.18668612 6:0.24009418 7:0.30282515 8:0.37562905 9:0.45925585 10:0.55445558 11:0.66197822 12:0.78257378 13:0.91699225 14:0.93679703 15:0.80039938 16:0.67792883 17:0.56863535 18:0.47176896 19:0.38657965 20:0.31231742 21:0.24823228 22:0.19357422 
0.10000000000000001 1:1 2:45 3:0.10027459 4:0.13625961 5:0.17996339 6:0.23213591 7:0.29352719 8:0.36488722 9:0.44696599 10:0.54051352 11:0.64627979 12:0.76501482 13:0.8974686 14:0.95688492 15:0.81849364 16:0.69413362 17:0.58305484 18:0.48450732 19:0.39774104 20:0.32200601 21:0.25655224 22:0.20062971 
0.10000000000000001 1:1 2:45 3:0.095844847 4:0.13081714 5:0.17340402 6:0.22435548 7:0.28442153 8:0.35435215 9:0.43489736 10:0.52680716 11:0.63083154 12:0.7477205 13:0.87822404 14:0.97725795 15:0.83685857 16:0.71059461 17:0.59771606 18:0.49747293 19:0.40911522 20:0.33189293 21:0.26505605 22:0.20785459 
0.10000000000000001 1:1 2:45 3:0.091547526 4:0.12552156 5:0.167006 6:0.21675087 7:0.27550615 8:0.34402185 9:0.42304796 10:0.51333449 11:0.61563144 12:0.7306888 13:0.85925658 14:0.99791811 15:0.85549617 16:0.7273138 17:0.61262102 18:0.51066782 19:0.42070421 20:0.34198018 21:0.27374573 22:0.21525087 
0.10000000000000001 1:1 2:45 3:0.087380615 4:0.12037085 5:0.16076733 6:0.20932007 7:0.26677905 8:0.33389429 9:0.41141577 10:0.50009351 11:0.60067749 12:0.71391772 13:0.84056421 14:0.98136694 15:0.87440845 16:0.74429321 17:0.62777173 18:0.52409399 19:0.43251001 20:0.35226978 21:0.28262329 22:0.22282056 
0.10000000000000001 1:1 2:45 3:0.083342104 4:0.11536301 5:0.154686 6:0.20206107 7:0.25823823 8:0.32396747 9:0.39999879 10:0.48708219 11:0.58596768 12:0.69740526 13:0.82214491 14:0.96093665 15:0.89359742 16:0.76153485 17:0.64317019 18:0.53775345 19:0.44453463 20:0.36276373 21:0.29169074 22:0.23056567 
0.10000000000000001 1:1 2:45 3:0.079429983 4:0.11049603 5:0.14875999 6:0.19497187 7:0.24988166 8:0.31423937 9:0.388795 10:0.47429855 11:0.57150001 12:0.68114938 13:0.80399668 14:0.94079189 15:0.9130651 16:0.77904072 17:0.65881843 18:0.55164821 19:0.45678009 20:0.37346404 21:0.30095008 22:0.2384882 
-0.10000000000000001 1:1 2:45 3:0.075642244 4:0.10576789 5:0.1429873 6:0.18805045 7:0.24170735 8:0.304708 9:0.3778024 10:0.46174055 11:0.55727245 12:0.6651481 13:0.7861175 14:0.92093066 15:0.93281349 16:0.79681283 17:0.67471843 18:0.56578028 19:0.46924838 20:0.38437273 21:0.31040333 22:0.24659018 
-0.10000000000000001 1:1 2:45 3:0.071616992 4:0.10072492 5:0.13681202 6:0.18062828 7:0.2329237 8:0.2944483 9:0.36595206 10:0.44818499 11:0.54189708 12:0.64783835 13:0.76675877 14:0.89940837 15:0.95486333 16:0.81667207 17:0.69250164 18:0.58160205 19:0.48322329 20:0.39661536 21:0.32102826 22:0.255712 
-0.10000000000000001 1:1 2:45 3:0.068781012 4:0.097159773 5:0.13243437 6:0.1753548 7:0.22667106 8:0.28713315 9:0.35749108 10:0.43849484 11:0.53089444 12:0.63543987 13:0.75288113 14:0.88396822 15:0.97111598 16:0.83132055 17:0.70562929 18:0.59329219 19:0.49355927 20:0.4056805 21:0.32890591 22:0.26248548 
-0.10000000000000001 1:1 2:45 3:0.065005217 4:0.092396493 5:0.12656902 6:0.1682728 7:0.21825782 8:0.2772741 9:0.34607162 10:0.4254004 11:0.51601043 12:0.6186517 13:0.73407423 14:0.863028 15:0.99376301 16:0.85174674 17:0.72394921 18:0.60962043 19:0.50801041 20:0.41836913 21:0.33994661 22:0.27199283 
-0.10000000000000001 1:1 2:45 3:0.062020761 4:0.088617115 5:0.12190097 6:0.16262232 7:0.21153118 8:0.26937753 9:0.33691139 10:0.41488274 11:0.50404159 12:0.60513795 13:0.7189218 14:0.84614316 15:0.98755201 16:0.8687058 17:0.73917195 18:0.62320059 19:0.52004174 20:0.42894538 21:0.34916153 22:0.27994018 
-0.10000000000000001 1:1 2:45 3:0.058813443 4:0.084540295 5:0.11685048 6:0.156494 7:0.20422085 8:0.26078104 9:0.32692455 10:0.40340141 11:0.49096159 12:0.59035511 13:0.70233196 14:0.82764215 15:0.96703567 16:0.88781156 17:0.75633471 18:0.63852452 19:0.533631 20:0.44090415 21:0.35959396 22:0.28895045 
-0.10000000000000001 1:1 2:45 3:0.055718651 4:0.080590468 5:0.11194145 6:0.1505216 7:0.19708092 8:0.2523694 9:0.31713705 10:0.39213387 11:0.47810985 12:0.57581501 13:0.68599932 14:0.80941281 15:0.94680546 16:0.90719541 17:0.77376109 18:0.65409761 19:0.54745496 20:0.45308314 21:0.37023216 22:0.29815201 
-0.10000000000000001 1:1 2:45 3:0.052441948 4:0.076389937 5:0.10670251 6:0.14412967 7:0.1894214 8:0.24332773 9:0.30659863 10:0.37998412 11:0.46423419 12:0.56009885 13:0.66832809 14:0.78967191 15:0.92488032 16:0.92884125 17:0.79323702 18:0.67151819 19:0.56293479 20:0.4667368 21:0.38217423 22:0.30849707 
-0.10000000000000001 1:1 2:45 3:0.049858606 4:0.073063757 5:0.10253974 6:0.13903656 7:0.18330421 8:0.23609269 9:0.29815201 10:0.37023216 11:0.45308314 12:0.54745496 13:0.65409761 14:0.77376109 15:0.90719541 16:0.94680546 17:0.80941281 18:0.68599932 19:0.57581501 20:0.47810985 21:0.39213387 22:0.31713705 
-0.10000000000000001 1:1 2:45 3:0.046818188 4:0.069131339 5:0.09760074 6:0.13297639 7:0.17600829 8:0.22744644 9:0.28804084 10:0.35854149 11:0.4396984 12:0.53226155 13:0.63698095 14:0.7546066 15:0.8858885 16:0.96907439 17:0.82947999 18:0.70397934 19:0.59182244 20:0.49225929 21:0.40453989 22:0.32791423 
-0.10000000000000001 1:1 2:45 3:0.044163743 4:0.065681176 5:0.093250693 6:0.12762229 7:0.16954598 8:0.21977174 9:0.27904959 10:0.34812953 11:0.42776154 12:0.51869564 13:0.62168183 14:0.73747009 15:0.86681044 16:0.98961946 17:0.84800828 18:0.72059501 19:0.60662966 20:0.50536223 21:0.41604271 22:0.33792111 
-0.10000000000000001 1:1 2:45 3:0.041862247 4:0.062675904 5:0.089447895 6:0.12292822 7:0.16386688 8:0.21301387 9:0.27111919 10:0.33893285 11:0.41720484 12:0.50668516 13:0.60812382 14:0.72227081 15:0.84987614 16:0.99168979 17:0.86491785 18:0.73577085 19:0.62016553 20:0.51735187 21:0.42657988 22:0.34709956 
-0.10000000000000001 1:1 2:45 3:0.039400412 4:0.05944584 5:0.085345435 6:0.1178492 7:0.15770713 8:0.20566922 9:0.26248548 10:0.32890591 11:0.4056805 12:0.49355927 13:0.59329219 14:0.70562929 15:0.83132055 16:0.97111598 17:0.88396822 18:0.75288113 19:0.63543987 20:0.53089444 21:0.43849484 22:0.35749108 
-0.10000000000000001 1:1 2:45 3:0.036806037 4:0.056023124 5:0.080979793 6:0.11242605 7:0.15111188 8:0.1977873 9:0.2532023 10:0.31810689 11:0.39325106 12:0.47938481 13:0.57725815 14:0.68762107 15:0.81122357 16:0.94881566 17:0.90524445 18:0.77200653 19:0.65252903 20:0.54606195 21:0.45185528 22:0.36915902 
-0.10000000000000001 1:1 2:45 3:0.034770113 4:0.053322485 5:0.077520691 6:0.10811473 7:0.1458546 8:0.19149031 9:0.24577185 10:0.30944922 11:0.38327243 12:0.46799147 13:0.56435634 14:0.67311705 15:0.79502358 16:0.93082596 17:0.92290408 18:0.78789337 19:0.66673683 20:0.55868446 21:0.46298625 22:0.37889221 
-0.10000000000000001 1:1 2:45 3:0.032385498 4:0.050141357 5:0.073428467 6:0.10299683 7:0.13959644 8:0.18397729 9:0.2368894 10:0.29908276 11:0.37130737 12:0.45431323 13:0.54885034 14:0.6556687 15:0.77551831 16:0.90914917 17:0.9447981 18:0.80760474 19:0.68438013 20:0.57437427 21:0.47683716 22:0.3910188 
0.10000000000000001 1:1 2:45 3:0.030314579 4:0.047361527 5:0.069835557 6:0.098486671 7:0.13406487 8:0.17732015 9:0.22900251 10:0.28986196 11:0.36064849 12:0.44211211 13:0.5350028 14:0.64007058 15:0.75806545 16:0.88973739 17:0.9649998 18:0.82580702 19:0.70068716 20:0.58889021 21:0.48966618 22:0.40226506 
-0.10000000000000001 1:1 2:45 3:0.028333882 4:0.044686385 5:0.066361805 6:0.094110141 7:0.12868139 8:0.17082556 9:0.22129265 10:0.28083265 11:0.35019557 12:0.43013141 13:0.52139016 14:0.62472183 15:0.74087642 16:0.87060392 17:0.98548744 18:0.84428077 19:0.71725119 20:0.60364868 21:0.50272326 22:0.41372493 
0.10000000000000001 1:1 2:45 3:0.026441397 4:0.042113923 5:0.063005199 6:0.089865225 7:0.123444 8:0.16449153 9:0.2137578 10:0.27199283 11:0.33994661 12:0.41836913 13:0.50801041 14:0.60962043 15:0.72394921 16:0.85174674 17:0.99376301 18:0.863028 19:0.73407423 20:0.6186517 21:0.51601043 22:0.4254004 
0.10000000000000001 1:1 2:45 3:0.024635115 4:0.039642132 5:0.059763732 6:0.085749915 7:0.11835068 8:0.15831603 9:0.20639597 10:0.26334048 11:0.32989958 12:0.40682327 13:0.49486153 14:0.59476438 15:0.70728182 16:0.83316383 17:0.97316043 18:0.88205072 19:0.75115829 20:0.63390127 21:0.52952967 22:0.43729349 
0.10000000000000001 1:1 2:45 3:0.022913026 4:0.037269001 5:0.056635393 6:0.081762201 7:0.11339943 8:0.15229707 9:0.19920513 10:0.2548736 11:0.32005249 12:0.3954918 13:0.48194153 14:0.58015167 15:0.69087223 16:0.8148532 17:0.95284459 18:0.90135094 19:0.76850538 20:0.6493994 21:0.54328301 22:0.4494062 
0.10000000000000001 1:1 2:45 3:0.021273121 4:0.034992522 5:0.053618173 6:0.077900074 7:0.10858823 8:0.14643263 9:0.19218328 10:0.24659018 11:0.31040333 12:0.38437273 13:0.46924838 14:0.56578028 15:0.67471843 16:0.79681283 17:0.93281349 18:0.92093066 19:0.7861175 20:0.6651481 21:0.55727245 22:0.46174055 
0.10000000000000001 1:1 2:45 3:0.019713391 4:0.032810685 5:0.050710063 6:0.074161524 7:0.10391507 8:0.1407207 9:0.18532841 10:0.2384882 11:0.30095008 12:0.37346404 13:0.45678009 14:0.55164821 15:0.65881843 16:0.77904072 17:0.9130651 18:0.94079189 19:0.80399668 20:0.68114938 21:0.57150001 22:0.47429855 
0.10000000000000001 1:1 2:45 3:0.018376522 4:0.03092629 5:0.048184392 6:0.070900827 7:0.099825596 8:0.1357087 9:0.17930013 10:0.2313499 11:0.292608 12:0.36382444 13:0.44574921 14:0.53913231 15:0.64472374 16:0.76327351 17:0.89553161 18:0.95890936 19:0.82031792 20:0.69576815 21:0.58451005 22:0.48579362 
0.10000000000000001 1:1 2:45 3:0.016963587 4:0.028918738 5:0.045478055 6:0.067391539 7:0.095409189 8:0.13028101 9:0.17275699 10:0.22358714 11:0.28352146 12:0.35330994 13:0.43370259 14:0.52544941 15:0.62930039 16:0.74600554 17:0.87631486 18:0.97931101 19:0.83871002 20:0.71225487 21:0.59919556 22:0.49878207 
0.10000000000000001 1:1 2:45 3:0.015495153 4:0.026812934 5:0.042620298 6:0.063667245 7:0.090703776 8:0.12447989 9:0.16574559 10:0.21525087 11:0.27374573 12:0.34198018 13:0.42070421 14:0.51066782 15:0.61262102 16:0.7273138 17:0.85549617 18:0.99791811 19:0.85925658 20:0.7306888 21:0.61563144 22:0.51333449 
0.10000000000000001 1:1 2:45 3:0.014358751 4:0.025168068 5:0.040373218 6:0.060724202 7:0.086971019 8:0.11986367 9:0.16015215 10:0.20858647 11:0.26591662 12:0.3328926 13:0.41026442 14:0.49878207 15:0.59919556 16:0.71225487 17:0.83871002 18:0.97931101 19:0.87631486 20:0.74600554 21:0.62930039 22:0.52544941 
0.10000000000000001 1:1 2:45 3:0.013047029 4:0.023250805 5:0.037735831 6:0.057252107 7:0.082549633 8:0.11437841 9:0.15348843 10:0.20062971 11:0.25655224 12:0.32200601 13:0.39774104 14:0.48450732 15:0.58305484 16:0.69413362 17:0.81849364 18:0.95688492 19:0.8974686 20:0.76501482 21:0.64627979 22:0.54051352 
0.10000000000000001 1:1 2:45 3:0.011926149 4:0.021594624 5:0.035440182 6:0.054212824 7:0.078662549 8:0.10953936 9:0.14759325 10:0.19357422 11:0.24823228 12:0.31231742 13:0.38657965 14:0.47176896 15:0.56863535 16:0.67792883 17:0.80039938 18:0.93679703 19:0.91699225 20:0.78257378 21:0.66197822 22:0.55445558 
0.10000000000000001 1:1 2:45 3:0.010973937 4:0.020173011 5:0.033455418 6:0.051571159 7:0.075270233 8:0.10530264 9:0.14241838 10:0.18736746 11:0.24089986 12:0.3037656 13:0.37671468 14:0.46049709 15:0.55586283 16:0.6635619 17:0.78434431 18:0.91896005 19:0.93480384 20:0.79860477 21:0.67632236 22:0.56720662 
0.10000000000000001 1:1 2:45 3:0.0099769456 4:0.018668207 5:0.031338635 6:0.04873823 7:0.071616992 8:0.10072492 9:0.13681202 10:0.18062828 11:0.2329237 12:0.2944483 13:0.36595206 14:0.44818499 15:0.54189708 16:0.64783835 17:0.76675877 18:0.89940837 19:0.95486333 20:0.81667207 21:0.69250164 22:0.58160205 
0.10000000000000001 1:1 2:45 3:0.008952124 4:0.017101502 5:0.029115463 6:0.045744008 7:0.067737136 8:0.095844847 9:0.13081714 10:0.17340402 11:0.22435548 12:0.28442153 13:0.35435215 14:0.43489736 15:0.52680716 16:0.63083154 17:0.7477205 18:0.87822404 19:0.97725795 20:0.83685857 21:0.71059461 22:0.59771606 
0.10000000000000001 1:1 2:45 3:0.0081678268 4:0.015886866 5:0.027376739 6:0.043387445 7:0.064668984 8:0.091971357 9:0.12604456 10:0.1676386 11:0.21750347 12:0.27638918 13:0.34504572 14:0.42422309 15:0.5146713 16:0.61714034 17:0.73238021 18:0.86114092 19:0.99583912 20:0.85362008 21:0.72563021 22:0.6111195 
0.10000000000000001 1:1 2:45 3:0.0072731934 4:0.014482178 5:0.025347412 6:0.040618896 7:0.061046631 8:0.087380615 9:0.12037085 10:0.16076733 11:0.20932007 12:0.26677905 13:0.33389429 14:0.41141577 15:0.50009351 16:0.60067749 17:0.71391772 18:0.84056421 19:0.98136694 20:0.87440845 21:0.74429321 22:0.62777173 
0.10000000000000001 1:1 2:45 3:0.0065188256 4:0.013279315 5:0.023591887 6:0.038206543 7:0.057873282 8:0.083342104 9:0.11536301 10:0.154686 11:0.20206107 12:0.25823823 13:0.32396747 14:0.39999879 15:0.48708219 16:0.58596768 17:0.69740526 18:0.82214491 19:0.96093665 20:0.89359742 21:0.76153485 22:0.64317019 
0.10000000000000001 1:1 2:45 3:0.0058185104 4:0.012144972 5:0.02191935 6:0.035891644 7:0.054811855 8:0.079429983 9:0.11049603 10:0.14875999 11:0.19497187 12:0.24988166 13:0.31423937 14:0.388795 15:0.47429855 16:0.57150001 17:0.68114938 18:0.80399668 19:0.94079189 20:0.9130651 21:0.77904072 22:0.65881843 
0.10000000000000001 1:1 2:45 3:0.0051702384 4:0.011077139 5:0.02032779 6:0.033672191 7:0.051860343 8:0.075642244 9:0.10576789 10:0.1429873 11:0.18805045 12:0.24170735 13:0.304708 14:0.3778024 15:0.46174055 16:0.55727245 17:0.6651481 18:0.7861175 19:0.92093066 20:0.93281349 21:0.79681283 22:0.67471843 
0.10000000000000001 1:1 2:45 3:0.0045720001 4:0.010073808 5:0.0188152 6:0.031546175 7:0.049016734 8:0.071976876 9:0.1011766 10:0.13736591 11:0.1812948 12:0.23371328 13:0.29537133 14:0.36701898 15:0.4494062 16:0.54328301 17:0.6493994 18:0.76850538 19:0.90135094 20:0.95284459 21:0.8148532 22:0.69087223 
0.10000000000000001 1:1 2:45 3:0.0040217861 4:0.0091329696 5:0.01737957 6:0.029511586 7:0.04627902 8:0.06843187 9:0.096720137 10:0.13189382 11:0.17470292 12:0.22589744 13:0.28622737 14:0.35644272 15:0.43729349 16:0.52952967 17:0.63390127 18:0.75115829 19:0.88205072 20:0.97316043 21:0.83316383 22:0.70728182 
0.10000000000000001 1:1 2:45 3:0.0035175872 4:0.0082526132 5:0.016018889 6:0.027566415 7:0.043645191 8:0.065005217 9:0.092396493 10:0.12656902 11:0.1682728 12:0.21825782 13:0.2772741 14:0.34607162 15:0.4254004 16:0.51601043 17:0.6186517 18:0.73407423 19:0.863028 20:0.99376301 21:0.85174674 22:0.72394921 
0.10000000000000001 1:1 2:45 3:0.0030573938 4:0.00743073 5:0.01473115 6:0.025708652 7:0.041113239 8:0.061694908 9:0.088203661 10:0.1213895 11:0.16200242 12:0.21079242 13:0.26850951 14:0.33590368 15:0.41372493 16:0.50272326 17:0.60364868 18:0.71725119 19:0.84428077 20:0.98548744 21:0.87060392 22:0.74087642 
0.10000000000000001 1:1 2:45 3:0.0026791838 4:0.006739369 5:0.013632888 6:0.024109739 7:0.038919925 8:0.058813443 9:0.084540295 10:0.11685048 11:0.156494 12:0.20422085 13:0.26078104 14:0.32692455 15:0.40340141 16:0.49096159 17:0.59035511 18:0.70233196 19:0.82764215 20:0.96703567 21:0.88781156 22:0.75633471 
0.10000000000000001 1:1 2:45 3:0.0022970652 4:0.006023049 5:0.012478199 6:0.022412517 7:0.036576 8:0.055718651 9:0.080590468 10:0.11194145 11:0.1505216 12:0.19708092 13:0.2523694 14:0.31713705 15:0.39213387 16:0.47810985 17:0.57581501 18:0.68599932 19:0.80941281 20:0.94680546 21:0.90719541 22:0.77376109 
0.10000000000000001 1:1 2:45 3:0.0019207534 4:0.0052958258 5:0.011285481 6:0.02063972 7:0.034108543 8:0.052441948 9:0.076389937 10:0.10670251 11:0.14412967 12:0.1894214 13:0.24332773 14:0.30659863 15:0.37998412 16:0.46423419 17:0.56009885 18:0.66832809 19:0.78967191 20:0.92488032 21:0.92884125 22:0.79323702 
0.10000000000000001 1:1 2:45 3:0.0016453538 4:0.0047463376 5:0.010368155 6:0.019260805 7:0.032174289 8:0.049858606 9:0.073063757 10:0.10253974 11:0.13903656 12:0.18330421 13:0.23609269 14:0.29815201 15:0.37023216 16:0.45308314 17:0.54745496 18:0.65409761 19:0.77376109 20:0.90719541 21:0.94680546 22:0.80941281 
-0.10000000000000001 1:1 2:45 3:0.0013461824 4:0.0041280834 5:0.0093162344 6:0.017660635 7:0.029911287 8:0.046818188 9:0.069131339 10:0.09760074 11:0.13297639 12:0.17600829 13:0.22744644 14:0.28804084 15:0.35854149 16:0.4396984 17:0.53226155 18:0.63698095 19:0.7546066 20:0.8858885 21:0.96907439 22:0.82947999 
-0.10000000000000001 1:1 2:45 3:0.0011078254 4:0.0036148422 5:0.0084239423 6:0.016285126 7:0.027948393 8:0.044163743 9:0.065681176 10:0.093250693 11:0.12762229 12:0.16954598 13:0.21977174 14:0.27904959 15:0.34812953 16:0.42776154 17:0.51869564 18:0.62168183 19:0.73747009 20:0.86681044 21:0.98961946 22:0.84800828 
-0.10000000000000001 1:1 2:45 3:0.00091896005 4:0.0031909508 5:0.0076712749 6:0.015109932 7:0.026256923 8:0.041862247 9:0.062675904 10:0.089447895 11:0.12292822 12:0.16386688 13:0.21301387 14:0.27111919 15:0.33893285 16:0.41720484 17:0.50668516 18:0.60812382 19:0.72227081 20:0.84987614 21:0.99168979 22:0.86491785 
-0.10000000000000001 1:1 2:45 3:0.00073577085 4:0.0027603658 5:0.0068891273 6:0.013872056 7:0.02445915 8:0.039400412 9:0.05944584 10:0.085345435 11:0.1178492 12:0.15770713 13:0.20566922 14:0.26248548 15:0.32890591 16:0.4056805 17:0.49355927 18:0.59329219 19:0.70562929 20:0.83132055 21:0.97111598 22:0.88396822 
-0.10000000000000001 1:1 2:45 3:0.00056435634 4:0.0023335259 5:0.0060922788 6:0.012590615 7:0.022578535 8:0.036806037 9:0.056023124 10:0.080979793 11:0.11242605 12:0.15111188 13:0.1977873 14:0.2532023 15:0.31810689 16:0.39325106 17:0.47938481 18:0.57725815 19:0.68762107 20:0.81122357 21:0.94881566 22:0.90524445 
-0.10000000000000001 1:1 2:45 3:0.00044574921 4:0.0020189552 5:0.0054879946 6:0.011602867 7:0.021113573 8:0.034770113 9:0.053322485 10:0.077520691 11:0.10811473 12:0.1458546 13:0.19149031 14:0.24577185 15:0.30944922 16:0.38327243 17:0.46799147 18:0.56435634 19:0.67311705 20:0.79502358 21:0.93082596 22:0.92290408 
-0.10000000000000001 1:1 2:45 3:0.00032495117 4:0.0016745605 5:0.0048054199 6:0.010467529 7:0.019410889 8:0.032385498 9:0.050141357 10:0.073428467 11:0.10299683 12:0.13959644 13:0.18397729 14:0.2368894 15:0.29908276 16:0.37130737 17:0.45431323 18:0.54885034 19:0.6556687 20:0.77551831 21:0.90914917 22:0.9447981 
-0.10000000000000001 1:1 2:45 3:0.00023609269 4:0.0013976234 5:0.0042362374 6:0.0095019347 7:0.017944715 8:0.030314579 9:0.047361527 10:0.069835557 11:0.098486671 12:0.13406487 13:0.17732015 14:0.22900251 15:0.28986196 16:0.36064849 17:0.44211211 18:0.5350028 19:0.64007058 20:0.75806545 21:0.88973739 22:0.9649998 
-0.10000000000000001 1:1 2:45 3:0.00016511776 4:0.0011530373 5:0.0037138736 6:0.0085976264 7:0.016554296 8:0.028333882 9:0.044686385 10:0.066361805 11:0.094110141 12:0.12868139 13:0.17082556 14:0.22129265 15:0.28083265 16:0.35019557 17:0.43013141 18:0.52139016 19:0.62472183 20:0.74087642 21:0.87060392 22:0.98548744 
-0.10000000000000001 1:1 2:45 3:0.000110017 4:0.00093879304 5:0.0032363191 6:0.0077525951 7:0.015237621 8:0.026441397 9:0.042113923 10:0.063005199 11:0.089865225 12:0.123444 13:0.16449153 14:0.2137578 15:0.27199283 16:0.33994661 17:0.41836913 18:0.50801041 19:0.60962043 20:0.72394921 21:0.85174674 22:0.99376301 
-0.10000000000000001 1:1 2:45 3:6.8781012e-05 4:0.00075288113 5:0.0028015646 6:0.0069648314 7:0.013992681 8:0.024635115 9:0.039642132 10:0.059763732 11:0.085749915 12:0.11835068 13:0.15831603 14:0.20639597 15:0.26334048 16:0.32989958 17:0.40682327 18:0.49486153 19:0.59476438 20:0.70728182 21:0.83316383 22:0.97316043 
-0.10000000000000001 1:1 2:45 3:3.9400412e-05 4:0.00059329219 5:0.0024076006 6:0.0062323258 7:0.012817468 8:0.022913026 9:0.037269001 10:0.056635393 11:0.081762201 12:0.11339943 13:0.15229707 14:0.19920513 15:0.2548736 16:0.32005249 17:0.3954918 18:0.48194153 19:0.58015167 20:0.69087223 21:0.8148532 22:0.95284459 
-0.10000000000000001 1:1 2:45 3:1.9865813e-05 4:0.00045801685 5:0.0020524179 6:0.0055530689 7:0.01170997 8:0.021273121 9:0.034992522 10:0.053618173 11:0.077900074 12:0.10858823 13:0.14643263 14:0.19218328 15:0.24659018 16:0.31040333 17:0.38437273 18:0.46924838 19:0.56578028 20:0.67471843 21:0.79681283 22:0.93281349 
-0.10000000000000001 1:1 2:45 3:8.1678268e-06 4:0.00034504572 5:0.0017340069 6:0.0049250515 7:0.010668179 8:0.019713391 9:0.032810685 10:0.050710063 11:0.074161524 12:0.10391507 13:0.1407207 14:0.18532841 15:0.2384882 16:0.30095008 17:0.37346404 18:0.45678009 19:0.55164821 20:0.65881843 21:0.77904072 22:0.9130651 
-0.10000000000000001 1:1 2:45 3:2.2970652e-06 4:0.0002523694 5:0.0014503584 6:0.0043462641 7:0.0096900864 8:0.018231825 9:0.030721481 10:0.047909053 11:0.070544542 12:0.099377948 13:0.13515927 14:0.17863851 15:0.23056567 16:0.29169074 17:0.36276373 18:0.44453463 19:0.53775345 20:0.64317019 21:0.76153485 22:0.89359742 
-0.10000000000000001 1:1 2:45 3:3.3489798e-07 4:0.00018465203 5:0.0012231358 6:0.0038657863 7:0.0088626034 8:0.016963587 9:0.028918738 10:0.045478055 11:0.067391539 12:0.095409189 13:0.13028101 14:0.17275699 15:0.22358714 16:0.28352146 17:0.35330994 18:0.43370259 19:0.52544941 20:0.62930039 21:0.74600554 22:0.87631486 
-0.10000000000000001 1:3 2:45 3:1 4:0.857375 5:0.729 6:0.614125 7:0.512 8:0.421875 9:0.343 10:0.274625 11:0.216 12:0.166375 13:0.125 14:0.091125 15:0.064 16:0.042875 17:0.027 18:0.015625 19:0.008 20:0.003375 21:0.001 22:0.000125 
-0.10000000000000001 1:3 2:45 3:0.97931101 4:0.87631486 5:0.74600554 6:0.62930039 7:0.52544941 8:0.43370259 9:0.35330994 10:0.28352146 11:0.22358714 12:0.17275699 13:0.13028101 14:0.095409189 15:0.067391539 16:0.045478055 17:0.028918738 18:0.016963587 19:0.0088626034 20:0.0038657863 21:0.0012231358 22:0.00018465203 
-0.10000000000000001 1:3 2:45 3:0.95688492 4:0.8974686 5:0.76501482 6:0.64627979 7:0.54051352 8:0.44696599 9:0.36488722 10:0.29352719 11:0.23213591 12:0.17996339 13:0.13625961 14:0.10027459 15:0.07125831 16:0.048460784 17:0.031132008 18:0.018521982 19:0.0098807057 20:0.0044581796 21:0.0015044036 22:0.00026937753 
-0.10000000000000001 1:3 2:45 3:0.93879304 4:0.91502727 5:0.78080592 6:0.66039706 7:0.55305071 8:0.45801685 9:0.3745455 10:0.30188665 11:0.23929029 12:0.18600644 13:0.14128508 14:0.10437623 15:0.074529876 16:0.050996021 17:0.033024667 18:0.019865813 19:0.010769459 20:0.0049856047 21:0.0017642506 22:0.00035539641 
-0.10000000000000001 1:3 2:45 3:0.91896005 4:0.93480384 5:0.79860477 6:0.67632236 7:0.56720662 8:0.47050754 9:0.38547514 10:0.3113594 11:0.24741032 12:0.19287791 13:0.14701217 14:0.1090631 15:0.078280693 16:0.053914952 17:0.035215878 18:0.021433471 19:0.01181773 20:0.0056186557 21:0.0020862483 22:0.00047050754 
-0.10000000000000001 1:3 2:45 3:0.8974686 4:0.95688492 5:0.81849364 6:0.69413362 7:0.58305484 8:0.48450732 9:0.39774104 10:0.32200601 11:0.25655224 12:0.20062971 13:0.15348843 14:0.11437841 15:0.082549633 16:0.057252107 17:0.037735831 18:0.023250805 19:0.013047029 20:0.0063745027 21:0.0024832266 22:0.00062320059 
-0.10000000000000001 1:3 2:45 3:0.880136 4:0.97520775 5:0.83500984 6:0.70893692 7:0.596239 8:0.49616609 9:0.40796817 10:0.33089525 11:0.26419734 12:0.20712442 13:0.1589265 14:0.11885359 15:0.086155671 16:0.060082755 17:0.039884838 18:0.024811921 19:0.014114005 20:0.007041088 21:0.0028431713 22:0.00077025463 
-0.10000000000000001 1:3 2:45 3:0.85925658 4:0.99791811 5:0.85549617 6:0.7273138 7:0.61262102 8:0.51066782 9:0.42070421 10:0.34198018 11:0.27374573 12:0.21525087 13:0.16574559 14:0.12447989 15:0.090703776 16:0.063667245 17:0.042620298 18:0.026812934 19:0.015495153 20:0.0079169557 21:0.0033283417 22:0.00097931101 
-0.10000000000000001 1:3 2:45 3:0.84056421 4:0.98136694 5:0.87440845 6:0.74429321 7:0.62777173 8:0.52409399 9:0.43251001 10:0.35226978 11:0.28262329 12:0.22282056 13:0.17211157 14:0.12974634 15:0.094974854 16:0.067047119 17:0.045213135 18:0.0287229 19:0.016826416 20:0.0087736816 21:0.0038146973 22:0.0011994629 
-0.10000000000000001 1:3 2:45 3:0.82214491 4:0.96093665 5:0.89359742 6:0.76153485 7:0.64317019 8:0.53775345 9:0.44453463 10:0.36276373 11:0.29169074 12:0.23056567 13:0.17863851 14:0.13515927 15:0.099377948 16:0.070544542 17:0.047909053 18:0.030721481 19:0.018231825 20:0.0096900864 21:0.0043462641 22:0.0014503584 
-0.10000000000000001 1:3 2:45 3:0.80399668 4:0.94079189 5:0.9130651 6:0.77904072 7:0.65881843 8:0.55164821 9:0.45678009 10:0.37346404 11:0.30095008 12:0.2384882 13:0.18532841 14:0.1407207 15:0.10391507 16:0.074161524 17:0.050710063 18:0.032810685 19:0.019713391 20:0.010668179 21:0.0049250515 22:0.0017340069 
-0.10000000000000001 1:3 2:45 3:0.78789337 4:0.92290408 5:0.93082596 6:0.79502358 7:0.67311705 8:0.56435634 9:0.46799147 10:0.38327243 11:0.30944922 12:0.24577185 13:0.19149031 14:0.1458546 15:0.10811473 16:0.077520691 17:0.053322485 18:0.034770113 19:0.021113573 20:0.011602867 21:0.0054879946 22:0.0020189552 
-0.10000000000000001 1:3 2:45 3:0.76850538 4:0.90135094 5:0.95284459 6:0.8148532 7:0.69087223 8:0.58015167 9:0.48194153 10:0.3954918 11:0.32005249 12:0.2548736 13:0.19920513 14:0.15229707 15:0.11339943 16:0.081762201 17:0.056635393 18:0.037269001 19:0.022913026 20:0.012817468 21:0.0062323258 22:0.0024076006 
-0.10000000000000001 1:3 2:45 3:0.75115829 4:0.88205072 5:0.97316043 6:0.83316383 7:0.70728182 8:0.59476438 9:0.49486153 10:0.40682327 11:0.32989958 12:0.26334048 13:0.20639597 14:0.15831603 15:0.11835068 16:0.085749915 17:0.059763732 18:0.039642132 19:0.024635115 20:0.013992681 21:0.0069648314 22:0.0028015646 
-0.10000000000000001 1:3 2:45 3:0.73407423 4:0.863028 5:0.99376301 6:0.85174674 7:0.72394921 8:0.60962043 9:0.50801041 10:0.41836913 11:0.33994661 12:0.27199283 13:0.2137578 14:0.16449153 15:0.123444 16:0.089865225 17:0.063005199 18:0.042113923 19:0.026441397 20:0.015237621 21:0.0077525951 22:0.0032363191 
-0.10000000000000001 1:3 2:45 3:0.7189218 4:0.84614316 5:0.98755201 6:0.8687058 7:0.73917195 8:0.62320059 9:0.52004174 10:0.42894538 11:0.34916153 12:0.27994018 13:0.22053132 14:0.17018497 15:0.12815111 16:0.09367976 17:0.066020906 18:0.044424552 19:0.028140697 20:0.016419343 21:0.008510489 22:0.0036641348 
-0.10000000000000001 1:3 2:45 3:0.70233196 4:0.82764215 5:0.96703567 6:0.88781156 7:0.75633471 8:0.63852452 9:0.533631 10:0.44090415 11:0.35959396 12:0.28895045 13:0.22822359 14:0.17666341 15:0.13351989 16:0.098043038 17:0.069482853 18:0.047089335 19:0.030112483 20:0.017802298 21:0.0094087791 22:0.0041819273 
-0.10000000000000001 1:3 2:45 3:0.68599932 4:0.80941281 5:0.94680546 6:0.90719541 7:0.77376109 8:0.65409761 9:0.54745496 10:0.45308314 11:0.37023216 12:0.29815201 13:0.23609269 14:0.18330421 15:0.13903656 16:0.10253974 17:0.073063757 18:0.049858606 19:0.032174289 20:0.019260805 21:0.010368155 22:0.0047463376 
-0.10000000000000001 1:3 2:45 3:0.66992188 4:0.79145313 5:0.92685937 6:0.92685937 7:0.79145313 8:0.66992188 9:0.56151562 10:0.46548438 11:0.38107812 12:0.30754688 13:0.24414062 14:0.19010937 15:0.14470313 16:0.10717187 17:0.076765625 18:0.052734375 19:0.034328125 20:0.020796875 21:0.011390625 22:0.005359375 
-0.10000000000000001 1:3 2:45 3:0.65409761 4:0.77376109 5:0.90719541 6:0.94680546 7:0.80941281 8:0.68599932 9:0.57581501 10:0.47810985 11:0.39213387 12:0.31713705 13:0.2523694 14:0.19708092 15:0.1505216 16:0.11194145 17:0.080590468 18:0.055718651 19:0.036576 20:0.022412517 21:0.012478199 22:0.006023049 
-0.10000000000000001 1:3 2:45 3:0.63698095 4:0.7546066 5:0.8858885 6:0.96907439 7:0.82947999 8:0.70397934 9:0.59182244 10:0.49225929 11:0.40453989 12:0.32791423 13:0.26163233 14:0.20494418 15:0.15709978 16:0.11734913 17:0.084942229 18:0.059129078 19:0.039159677 20:0.024284026 21:0.013752125 22:0.0068139739 
-0.10000000000000001 1:3 2:45 3:0.62320059 4:0.73917195 5:0.8687058 6:0.98755201 7:0.84614316 8:0.7189218 9:0.60513795 10:0.50404159 11:0.41488274 12:0.33691139 13:0.26937753 14:0.21153118 15:0.16262232 16:0.12190097 17:0.088617115 18:0.062020761 19:0.041361907 20:0.025890553 21:0.014856698 22:0.0075103443 
-0.10000000000000001 1:3 2:45 3:0.60812382 4:0.72227081 5:0.84987614 6:0.99168979 7:0.86491785 8:0.73577085 9:0.62016553 10:0.51735187 11:0.42657988 12:0.34709956 13:0.2781609 14:0.21901391 15:0.16890859 16:0.12709493 17:0.092822938 18:0.065342614 19:0.043903957 20:0.027756966 21:0.016151642 22:0.0083379844 
-0.10000000000000001 1:3 2:45 3:0.59329219 4:0.70562929 5:0.83132055 6:0.97111598 7:0.88396822 8:0.75288113 9:0.63543987 10:0.53089444 11:0.43849484 12:0.35749108 13:0.28713315 14:0.22667106 15:0.1753548 16:0.13243437 17:0.097159773 18:0.068781012 19:0.046548083 20:0.029710988 21:0.017519727 22:0.0092242986 
-0.10000000000000001 1:3 2:45 3:0.5787037 4:0.68924537 5:0.81303704 6:0.9508287 7:0.9032963 8:0.77025463 9:0.65096296 10:0.5446713 11:0.45062963 12:0.36808796 13:0.2962963 14:0.23450463 15:0.18196296 16:0.1379213 17:0.10162963 18:0.072337963 19:0.049296296 20:0.03175463 21:0.018962963 22:0.010171296 
-0.10000000000000001 1:3 2:45 3:0.56435634 4:0.67311705 5:0.79502358 6:0.93082596 7:0.92290408 8:0.78789337 9:0.66673683 10:0.55868446 11:0.46298625 12:0.37889221 13:0.30565234 14:0.24251664 15:0.1887351 16:0.14355772 17:0.10623452 18:0.076015478 19:0.052150605 20:0.033889899 21:0.02048336 22:0.011180987 
-0.10000000000000001 1:3 2:45 3:0.54885034 4:0.6556687 5:0.77551831 6:0.90914917 7:0.9447981 8:0.80760474 9:0.68438013 10:0.57437427 11:0.47683716 12:0.3910188 13:0.31616919 14:0.25153833 15:0.19637622 16:0.14993286 17:0.11145825 18:0.080202393 19:0.055415283 20:0.036346924 21:0.022247314 22:0.012366455 
-0.10000000000000001 1:3 2:45 3:0.53637695 4:0.64161914 5:0.75979883 6:0.89166602 7:0.9629668 8:0.82397461 9:0.69904492 10:0.58742773 11:0.48837305 12:0.40113086 13:0.32495117 14:0.25908398 15:0.2027793 16:0.15528711 17:0.11585742 18:0.083740234 19:0.058185547 20:0.038443359 21:0.023763672 22:0.013396484 
-0.10000000000000001 1:3 2:45 3:0.52274091 4:0.62624554 5:0.7425835 6:0.8725048 7:0.98342575 8:0.84242112 9:0.71558316 10:0.60216187 11:0.50140724 12:0.41256927 13:0.33489798 14:0.26764335 15:0.21005538 16:0.16138409 17:0.12087946 18:0.087791495 19:0.061370199 20:0.040865569 21:0.025527606 22:0.01460631 
-0.10000000000000001 1:3 2:45 3:0.50933796 4:0.6111195 5:0.72563021 6:0.85362008 7:0.99583912 8:0.86114092 9:0.73238021 10:0.61714034 11:0.5146713 12:0.42422309 13:0.34504572 14:0.27638918 15:0.21750347 16:0.1676386 17:0.12604456 18:0.091971357 19:0.064668984 20:0.043387445 21:0.027376739 22:0.015886866 
-0.10000000000000001 1:3 2:45 3:0.49616609 4:0.596239 5:0.70893692 6:0.83500984 7:0.97520775 8:0.880136 9:0.74943808 10:0.63236516 11:0.52816725 12:0.43609433 13:0.35539641 14:0.2853235 15:0.22512558 16:0.17405266 17:0.13135475 18:0.096281829 19:0.068083912 20:0.046010995 21:0.029313079 22:0.017240162 
-0.10000000000000001 1:3 2:45 3:0.48194153 4:0.58015167 5:0.69087223 6:0.8148532 7:0.95284459 8:0.90135094 9:0.76850538 10:0.6493994 11:0.54328301 12:0.4494062 13:0.36701898 14:0.29537133 15:0.23371328 16:0.1812948 17:0.13736591 18:0.1011766 19:0.071976876 20:0.049016734 21:0.031546175 22:0.0188152 
-0.10000000000000001 1:3 2:45 3:0.46924838 4:0.56578028 5:0.67471843 6:0.79681283 7:0.93281349 8:0.92093066 9:0.7861175 10:0.6651481 11:0.55727245 12:0.46174055 13:0.3778024 14:0.304708 15:0.24170735 16:0.18805045 17:0.1429873 18:0.10576789 19:0.075642244 20:0.051860343 21:0.033672191 22:0.02032779 
-0.10000000000000001 1:3 2:45 3:0.45678009 4:0.55164821 5:0.65881843 6:0.77904072 7:0.9130651 8:0.94079189 9:0.80399668 10:0.68114938 11:0.57150001 12:0.47429855 13:0.388795 14:0.31423937 15:0.24988166 16:0.19497187 17:0.14875999 18:0.11049603 19:0.079429983 20:0.054811855 21:0.035891644 22:0.02191935 
-0.10000000000000001 1:3 2:45 3:0.44453463 4:0.53775345 5:0.64317019 6:0.76153485 7:0.89359742 8:0.96093665 9:0.82214491 10:0.69740526 11:0.58596768 12:0.48708219 13:0.39999879 14:0.32396747 15:0.25823823 16:0.20206107 17:0.154686 18:0.11536301 19:0.083342104 20:0.057873282 21:0.038206543 22:0.023591887 
-0.10000000000000001 1:3 2:45 3:0.43251001 4:0.52409399 5:0.62777173 6:0.74429321 7:0.87440845 8:0.98136694 9:0.84056421 10:0.71391772 11:0.60067749 12:0.50009351 13:0.41141577 14:0.33389429 15:0.26677905 16:0.20932007 17:0.16076733 18:0.12037085 19:0.087380615 20:0.061046631 21:0.040618896 22:0.025347412 
-0.10000000000000001 1:3 2:45 3:0.42070421 4:0.51066782 5:0.61262102 6:0.7273138 7:0.85549617 8:0.99791811 9:0.85925658 10:0.7306888 11:0.61563144 12:0.51333449 13:0.42304796 14:0.34402185 15:0.27550615 16:0.21675087 17:0.167006 18:0.12552156 19:0.091547526 20:0.064333912 21:0.043130715 22:0.027187934 
-0.10000000000000001 1:3 2:45 3:0.41026442 4:0.49878207 5:0.59919556 6:0.71225487 7:0.83871002 8:0.97931101 9:0.87631486 10:0.74600554 11:0.62930039 12:0.52544941 13:0.43370259 14:0.35330994 15:0.28352146 16:0.22358714 17:0.17275699 18:0.13028101 19:0.095409189 20:0.067391539 21:0.045478055 22:0.028918738 
-0.10000000000000001 1:3 2:45 3:0.39774104 4:0.48450732 5:0.58305484 6:0.69413362 7:0.81849364 8:0.95688492 9:0.8974686 10:0.76501482 11:0.64627979 12:0.54051352 13:0.44696599 14:0.36488722 15:0.29352719 16:0.23213591 17:0.17996339 18:0.13625961 19:0.10027459 20:0.07125831 21:0.048460784 22:0.031132008 
